
\data\
ngram 1=4310
ngram 2=15617
ngram 3=4121
ngram 4=3030
ngram 5=2514

\1-grams:
-2.7416	!	-0.6674851
-3.393309	$	-0.1135438
-3.914812	%	-0.1135438
-3.829278	&apos;	-0.1135438
-4.097505	&apos;Correct	-0.1135438
-4.097505	&apos;clock	-0.1135438
-3.829278	&apos;d	-0.1135438
-3.393309	&apos;ll	-0.1768899
-4.097505	&apos;m	-0.1135438
-3.829278	&apos;re	-0.122026
-2.547059	&apos;s	-0.1656319
-3.069297	&apos;t	-0.185327
-3.673276	&apos;ve	-0.1480491
-2.807745	&quot;	-0.1944903
-3.008516	(	-0.1306772
-2.825985	)	-0.487323
-1.92804	,	-0.4642835
-4.097505	-	-0.1135438
-0.8610958	.	-1.768437
-3.829278	/	-0.1135438
-4.097505	00	-0.1135438
-3.829278	1	-0.1530906
-4.097505	1,000,000	-0.1135438
-4.097505	1,100,000	-0.1135438
-4.097505	1,900,000	-0.1135438
-3.468195	10	-0.1530906
-4.097505	10,000	-0.1135438
-4.097505	10,000,000	-0.1135438
-4.097505	100	-0.1135438
-4.097505	100,000	-0.1135438
-4.097505	1000	-0.1135438
-4.097505	10000	-0.1135438
-4.097505	10PM	-0.1135438
-3.329457	11	-0.1812061
-4.097505	11PM	-0.1135438
-3.829278	12	-0.1671158
-4.097505	12.00	-0.1135438
-4.097505	12th	-0.1135438
-3.914812	13	-0.1966027
-3.914812	14	-0.1966027
-3.829278	15	-0.1671158
-4.097505	1500	-0.1135438
-3.829278	16	-0.1530906
-3.829278	17	-0.1530906
-4.097505	17.48	-0.1135438
-4.097505	17.50	-0.1135438
-4.097505	17th	-0.1135438
-3.914812	18	-0.1966027
-3.914812	19	-0.1671158
-4.097505	1993	-0.1135438
-3.558741	2	-0.1328672
-3.468195	20	-0.1395043
-4.097505	20,000	-0.1135438
-3.558741	200	-0.1135438
-4.097505	200,000	-0.1135438
-3.914812	2000	-0.1135438
-4.097505	20000	-0.1135438
-3.914812	21	-0.1966027
-3.914812	22	-0.1135438
-4.097505	22nd	-0.1135438
-3.914812	23	-0.1966027
-3.914812	24	-0.1135438
-4.097505	25	-0.1135438
-4.097505	25th	-0.1135438
-3.914812	26	-0.1135438
-4.097505	26.59	-0.1135438
-4.097505	27th	-0.1135438
-4.097505	2days	-0.1135438
-3.468195	3	-0.1328672
-4.097505	3.41	-0.1135438
-3.673276	30	-0.1135438
-4.097505	30.00	-0.1135438
-3.914812	300	-0.1135438
-4.097505	300,000	-0.1135438
-4.097505	30P	-0.1135438
-4.097505	30PM	-0.1135438
-4.097505	30pm	-0.1135438
-4.097505	31	-0.1135438
-3.914812	32	-0.1135438
-4.097505	34	-0.1135438
-4.097505	3rd	-0.1135438
-3.914812	4	-0.1135438
-4.097505	4.00	-0.1135438
-4.097505	40	-0.1135438
-4.097505	45	-0.1135438
-4.097505	4th	-0.1135438
-3.224472	5	-0.1614513
-4.097505	5.00	-0.1135438
-4.097505	50	-0.1135438
-3.673276	500	-0.1135438
-4.097505	500,000	-0.1135438
-4.097505	50000	-0.1135438
-4.097505	567	-0.1135438
-4.097505	5th	-0.1135438
-3.558741	6	-0.1306772
-4.097505	60	-0.1135438
-4.097505	61	-0.1135438
-4.097505	650	-0.1135438
-3.673276	7	-0.1356992
-4.097505	70	-0.1135438
-4.097505	71	-0.1135438
-4.097505	7th	-0.1135438
-3.558741	8	-0.1786715
-4.097505	80	-0.1135438
-3.829278	9	-0.1448879
-4.097505	90	-0.1135438
-4.097505	90,000	-0.1135438
-4.097505	91	-0.1135438
-2.955206	:	-0.2577181
-1.309191	</s>
-99	<s>	-0.7503057
-4.223548	<unk>
-1.509368	?	-1.493947
-2.316723	@-@	-0.185732
-4.097505	A	-0.1135438
-4.097505	A.M	-0.1135438
-3.914812	ATM	-0.1135438
-4.097505	Abandoner	-0.1135438
-4.097505	Abbou	-0.1135438
-4.097505	Abnormal	-0.1135438
-4.097505	Absonder	-0.1135438
-4.097505	Abuse	-0.1135438
-4.097505	Accomplice	-0.1135438
-4.097505	Accountancy	-0.1135438
-4.097505	Accountant	-0.1135438
-4.097505	Accredit	-0.1135438
-4.097505	Achilles	-0.1135438
-4.097505	Acrobatics	-0.1135438
-4.097505	Act	-0.1135438
-4.097505	Acting	-0.1135438
-4.097505	Adam	-0.1135438
-4.097505	Additional	-0.1135438
-4.097505	Adijutant	-0.1135438
-4.097505	Adult	-0.1135438
-4.097505	Adultery	-0.1135438
-4.097505	Advance	-0.1135438
-4.097505	Advocate	-0.1135438
-4.097505	Aeronautics	-0.1135438
-4.097505	Affimation	-0.1135438
-4.097505	Agent	-0.1135438
-4.097505	Agricultur	-0.1135438
-4.097505	Ah	-0.1135438
-4.097505	Aid	-0.1135438
-4.097505	Air	-0.1135438
-4.097505	Aircant	-0.1135438
-3.914812	Airport	-0.1448879
-4.097505	Ambassador	-0.1135438
-3.829278	America	-0.2313416
-3.558741	American	-0.2194505
-4.097505	Amy	-0.1135438
-4.097505	Anatomy	-0.1135438
-4.097505	And	-0.1135438
-4.097505	Angeles	-0.1135438
-4.097505	Angelo	-0.1135438
-4.097505	Ankle	-0.1135438
-4.097505	Anklet	-0.1135438
-4.097505	Appearance	-0.1135438
-4.097505	Appellant	-0.1135438
-4.097505	Applicant	-0.1135438
-4.097505	AppointmentsGeneral	-0.1135438
-4.097505	Appraiser	-0.1135438
-4.097505	Apprentice	-0.1135438
-4.097505	April	-0.1135438
-4.097505	Arbitrator	-0.1135438
-4.097505	Arch	-0.1135438
-4.097505	Archaeology	-0.1135438
-4.097505	Architecture	-0.1135438
-4.097505	Archivist	-0.1135438
-4.097505	Arithematic	-0.1135438
-4.097505	Armpit	-0.1135438
-3.914812	Army	-0.1135438
-4.097505	Arrow	-0.1135438
-4.097505	Asking	-0.1135438
-4.097505	Aspen	-0.1135438
-4.097505	Asses	-0.1135438
-3.914812	Assistant	-0.1328672
-4.097505	Association	-0.1135438
-4.097505	Asthamaer	-0.1135438
-4.097505	Astich	-0.1135438
-4.097505	Astronomy	-0.1135438
-4.097505	Attoney	-0.1135438
-3.914812	Attorney	-0.1966027
-4.097505	Auditor	-0.1135438
-3.914812	August	-0.1135438
-4.097505	Aung	-0.1135438
-4.097505	Australia	-0.1135438
-4.097505	Authority	-0.1135438
-4.097505	Authorized	-0.1135438
-3.558741	Aye	-0.1769054
-4.097505	Azores	-0.1135438
-4.097505	Bacteriology	-0.1135438
-4.097505	Bagan	-0.1135438
-4.097505	Baho	-0.1135438
-4.097505	Bailiff	-0.1135438
-4.097505	BalanceBooks	-0.1135438
-4.097505	Bangkok	-0.1135438
-4.097505	Bangladesh	-0.1135438
-4.097505	Banteng	-0.1135438
-4.097505	Barber	-0.1135438
-4.097505	Barrister	-0.1135438
-4.097505	Base	-0.1135438
-4.097505	Battle	-0.1135438
-4.097505	Beard	-0.1135438
-4.097505	Bedroom	-0.1135438
-4.097505	Beijing	-0.1135438
-4.097505	Belly	-0.1135438
-4.097505	Bench	-0.1135438
-4.097505	Biochemistry	-0.1135438
-4.097505	Biology	-0.1135438
-4.097505	Biophysic	-0.1135438
-4.097505	Birdge	-0.1135438
-4.097505	Birthday	-0.1135438
-3.914812	Bishop	-0.1966027
-4.097505	Blacksmith	-0.1135438
-4.097505	Blea	-0.1135438
-4.097505	Blend	-0.1135438
-3.914812	Bo	-0.1135438
-3.914812	Board	-0.1135438
-4.097505	Bob	-0.1135438
-4.097505	Bond	-0.1135438
-4.097505	Bone	-0.1135438
-4.097505	Bosibery	-0.1135438
-3.673276	Boston	-0.1530906
-4.097505	Botany	-0.1135438
-4.097505	Branch	-0.1135438
-4.097505	Break	-0.1135438
-4.097505	Breast	-0.1135438
-4.097505	Brigade	-0.1135438
-4.097505	Brith	-0.1135438
-4.097505	British	-0.1135438
-4.097505	Bugler	-0.1135438
-4.097505	Bullet	-0.1135438
-4.097505	Bulletin	-0.1135438
-3.829278	Burbank	-0.2789672
-4.097505	Buttocks	-0.1135438
-4.097505	Buying	-0.1135438
-4.097505	Cadet	-0.1135438
-4.097505	Caesar	-0.1135438
-4.097505	Calculus	-0.1135438
-4.097505	Calf	-0.1135438
-3.673276	California	-0.2441258
-4.097505	Cambodia	-0.1135438
-4.097505	Camel	-0.1135438
-4.097505	Canada	-0.1135438
-3.914812	Cancer	-0.1135438
-4.097505	Cane	-0.1135438
-4.097505	Cannier	-0.1135438
-4.097505	Cantoment	-0.1135438
-4.097505	Cantonese	-0.1135438
-4.097505	Cartography	-0.1135438
-4.097505	Cartoonist	-0.1135438
-3.914812	Cash	-0.1135438
-4.097505	Caspus	-0.1135438
-4.097505	Central	-0.1135438
-4.097505	Century	-0.1135438
-4.097505	Certainly	-0.1135438
-4.097505	Chairman	-0.1135438
-3.914812	Chan	-0.1135438
-4.097505	Cheat	-0.1135438
-4.097505	Checking	-0.1135438
-4.097505	Cheek	-0.1135438
-4.097505	Cheers	-0.1135438
-4.097505	Chemistry	-0.1135438
-4.097505	Chest	-0.1135438
-3.914812	Chicago	-0.1135438
-3.914812	Chief	-0.1356993
-4.097505	Chin	-0.1135438
-4.097505	Chinatown	-0.1135438
-3.673276	Chinese	-0.2313416
-4.097505	Chit	-0.1135438
-4.097505	Cholera	-0.1135438
-4.097505	Cindy	-0.1135438
-4.097505	Circle	-0.1135438
-4.097505	City	-0.1135438
-4.097505	Civil	-0.1135438
-4.097505	Clarifying	-0.1135438
-4.097505	Class	-0.1135438
-3.468195	Clerk	-0.4074329
-4.097505	Climatology	-0.1135438
-3.558741	Clinic	-0.500816
-4.097505	Cob	-0.1135438
-4.097505	Collar	-0.1135438
-3.829278	Colonel	-0.1671158
-4.097505	Colorado	-0.1135438
-4.097505	Commander	-0.1135438
-4.097505	Commercial	-0.1135438
-4.097505	Commission	-0.1135438
-4.097505	Commissioner	-0.1135438
-3.829278	Committee	-0.2789672
-4.097505	Compare	-0.1135438
-4.097505	Compiler	-0.1135438
-4.097505	Complainant	-0.1135438
-4.097505	Confesstion	-0.1135438
-4.097505	Confirming	-0.1135438
-4.097505	Congratulate	-0.1135438
-4.097505	Consultant	-0.1135438
-4.097505	Coomerce	-0.1135438
-3.914812	Corporal	-0.1135438
-4.097505	Corridor	-0.1135438
-4.097505	Course	-0.1135438
-4.097505	Court	-0.1135438
-4.097505	Craft	-0.1135438
-4.097505	Cramer	-0.1135438
-4.097505	Craniology	-0.1135438
-4.097505	Creamiest	-0.1135438
-4.097505	Crease	-0.1135438
-4.097505	Creditor	-0.1135438
-4.097505	Criminal	-0.1135438
-4.097505	Cross	-0.1135438
-4.097505	Cultivator	-0.1135438
-4.097505	Curator	-0.1135438
-4.097505	Custing	-0.1135438
-4.097505	Dacoity	-0.1135438
-4.097505	Dallas	-0.1135438
-4.097505	Daniel	-0.1135438
-3.829278	Daw	-0.1135438
-4.097505	December	-0.1135438
-4.097505	Defence	-0.1135438
-4.097505	Defendant	-0.1135438
-4.097505	Delaware	-0.1135438
-4.097505	Delegation	-0.1135438
-4.097505	Demonstrator	-0.1135438
-4.097505	Dentistry	-0.1135438
-3.558741	Department	-0.3282516
-4.097505	Deputy	-0.1135438
-4.097505	Desenter	-0.1135438
-4.097505	Despatcher	-0.1135438
-4.097505	Despite	-0.1135438
-4.097505	Detroit	-0.1135438
-3.914812	Development	-0.1135438
-4.097505	Dimiss	-0.1135438
-3.673276	Director	-0.3233071
-4.097505	Discharge	-0.1135438
-4.097505	Disease	-0.1135438
-4.097505	Diseases	-0.1135438
-4.097505	Dislikes	-0.1135438
-4.097505	Dispensary	-0.1135438
-3.914812	District	-0.1135438
-3.914812	Divisional	-0.1966027
-4.097505	Divorce	-0.1135438
-4.097505	Do	-0.1135438
-3.914812	Doctor	-0.1135438
-4.097505	Does	-0.1135438
-4.097505	Dollars	-0.1135438
-4.097505	Dr	-0.1135438
-4.097505	Drilling	-0.1135438
-4.097505	Dufferin	-0.1135438
-4.097505	Duplication	-0.1135438
-4.097505	Duputy	-0.1135438
-4.097505	Dyeing	-0.1135438
-4.097505	Dynamic	-0.1135438
-4.097505	Ear	-0.1135438
-4.097505	Ecology	-0.1135438
-4.097505	Eddy	-0.1135438
-4.097505	Editor	-0.1135438
-4.097505	Education	-0.1135438
-4.097505	Egypt	-0.1135438
-2.93082	Embassy	-0.9080352
-4.097505	Embryology	-0.1135438
-3.468195	Engineer	-0.5799973
-4.097505	Engineering	-0.1135438
-4.097505	England	-0.1135438
-3.18018	English	-0.3190305
-4.097505	Entomology	-0.1135438
-4.097505	Epidemic	-0.1135438
-4.097505	Ethnology	-0.1135438
-4.097505	Etymology	-0.1135438
-4.097505	Eugenics	-0.1135438
-4.097505	Eventually	-0.1135438
-4.097505	Excellent	-0.1135438
-4.097505	Executive	-0.1135438
-4.097505	Expedia	-0.1135438
-4.097505	Expiration	-0.1135438
-4.097505	Expressing	-0.1135438
-4.097505	Extorting	-0.1135438
-4.097505	Eyebrow	-0.1135438
-3.914812	Fast	-0.1135438
-4.097505	Faucet	-0.1135438
-4.097505	Favourite	-0.1135438
-4.097505	Fee	-0.1135438
-4.097505	Fiction	-0.1135438
-4.097505	Finger	-0.1135438
-4.097505	Flatfoot	-0.1135438
-3.914812	Florida	-0.1135438
-4.097505	Force	-0.1135438
-4.097505	Forces	-0.1135438
-4.097505	Forearm	-0.1135438
-4.097505	Forensic	-0.1135438
-4.097505	Forgive	-0.1135438
-4.097505	Fortune	-0.1135438
-4.097505	Fox	-0.1135438
-4.097505	France	-0.1135438
-4.097505	Frank	-0.1135438
-4.097505	Free	-0.1135438
-3.673276	Friday	-0.1786714
-4.097505	Future	-0.1135438
-4.097505	Garlic	-0.1135438
-4.097505	Gathering	-0.1135438
-4.097505	Gazetted	-0.1135438
-4.097505	Geat	-0.1135438
-3.18018	General	-0.4779354
-4.097505	Genetics	-0.1135438
-4.097505	Geography	-0.1135438
-4.097505	Geometry	-0.1135438
-4.097505	Georgia	-0.1135438
-4.097505	Germany	-0.1135438
-4.097505	Gifts	-0.1135438
-4.097505	Glazier	-0.1135438
-3.914812	God	-0.1135438
-4.097505	Good	-0.1135438
-4.097505	Government	-0.1135438
-3.914812	Grade	-0.1135438
-3.914812	Grape	-0.1966027
-4.097505	Gray	-0.1135438
-4.097505	Greg	-0.1135438
-4.097505	Grigader	-0.1135438
-4.097505	Grinder	-0.1135438
-4.097505	Guarantee	-0.1135438
-4.097505	Gum	-0.1135438
-4.097505	Gymnastics	-0.1135438
-4.097505	Gynaecology	-0.1135438
-4.097505	HK	-0.1135438
-4.097505	Handgenade	-0.1135438
-4.097505	Hawaii	-0.1135438
-4.097505	He	-0.1135438
-4.097505	Head	-0.1135438
-3.829278	Health	-0.1135438
-4.097505	Heho	-0.1135438
-4.097505	Helen	-0.1135438
-4.097505	Helping	-0.1135438
-4.097505	Henry	-0.1135438
-4.097505	Hey	-0.1135438
-4.097505	Hi	-0.1135438
-4.097505	Higher	-0.1135438
-4.097505	Hilton	-0.1135438
-4.097505	Hip	-0.1135438
-4.097505	Hipa	-0.1135438
-4.097505	Histology	-0.1135438
-4.097505	History	-0.1135438
-3.829278	Hla	-0.1530906
-3.914812	Hong	-0.1966027
-2.981043	Hospital	-1.032295
-3.829278	Hotel	-0.1530906
-4.097505	How	-0.1135438
-4.097505	Hydrology	-0.1135438
-2.500629	I	-0.2495699
-4.097505	IT	-0.1135438
-4.097505	Identifying	-0.1135438
-4.097505	Immediate	-0.1135438
-4.097505	Imprisonment	-0.1135438
-4.097505	India	-0.1135438
-4.097505	Indigenoun	-0.1135438
-4.097505	Indonesia	-0.1135438
-4.097505	Infectious	-0.1135438
-4.097505	Inflationary	-0.1135438
-4.097505	Injection	-0.1135438
-4.097505	Inquiring	-0.1135438
-4.097505	Instep	-0.1135438
-4.097505	Internal	-0.1135438
-4.097505	International	-0.1135438
-4.097505	Introducing	-0.1135438
-4.097505	Investment	-0.1135438
-4.097505	Investors	-0.1135438
-4.097505	Investory	-0.1135438
-4.097505	Inya	-0.1135438
-4.097505	Iris	-0.1135438
-4.097505	Israel	-0.1135438
-3.673276	Italian	-0.1135438
-4.097505	Italy	-0.1135438
-3.914812	Jack	-0.1135438
-4.097505	Jackie	-0.1135438
-4.097505	Jailor	-0.1135438
-4.097505	JapanEmbassy	-0.1135438
-4.097505	Japanese	-0.1135438
-4.097505	Jaw	-0.1135438
-4.097505	Jeremy	-0.1135438
-4.097505	Jessica	-0.1135438
-4.097505	Jim	-0.1135438
-3.914812	Joe	-0.1135438
-3.914812	John	-0.1135438
-4.097505	Johnny	-0.1135438
-4.097505	JointSecretary	-0.1135438
-4.097505	Josh	-0.1135438
-4.097505	Journalist	-0.1135438
-4.097505	Judge	-0.1135438
-4.097505	Judgement	-0.1135438
-3.914812	Judical	-0.1671158
-4.097505	Judicial	-0.1135438
-3.914812	July	-0.1135438
-3.829278	June	-0.1135438
-4.097505	Jungle	-0.1135438
-4.097505	Junior	-0.1135438
-4.097505	Jupiter	-0.1135438
-4.097505	Just	-0.1135438
-4.097505	Justice	-0.1135438
-4.097505	Justics	-0.1135438
-3.829278	K	-0.1135438
-4.097505	Kabar	-0.1135438
-4.097505	Kalaw	-0.1135438
-4.097505	Keeper	-0.1135438
-4.097505	Kelly	-0.1135438
-4.097505	Ketu	-0.1135438
-3.829278	Khin	-0.1135438
-4.097505	Kidnapping	-0.1135438
-4.097505	Kidney	-0.1135438
-4.097505	Kill	-0.1135438
-4.097505	King	-0.1135438
-4.097505	Klare	-0.1135438
-4.097505	Knight	-0.1135438
-4.097505	Kniting	-0.1135438
-4.097505	Knuckle	-0.1135438
-3.829278	Ko	-0.1448879
-4.097505	Kong	-0.1135438
-4.097505	KoreaEmbassy	-0.1135438
-4.097505	Kung	-0.1135438
-3.914812	Kyats	-0.1966027
-3.829278	Kyaw	-0.1530906
-4.097505	Kyipyar	-0.1135438
-4.097505	Lake	-0.1135438
-4.097505	Lance	-0.1135438
-4.097505	LaoEmbassy	-0.1135438
-4.097505	Large	-0.1135438
-3.673276	Law	-0.2313416
-4.097505	Learder	-0.1135438
-3.914812	Lecturer	-0.1966027
-4.097505	Lexicography	-0.1135438
-4.097505	Librarian	-0.1135438
-4.097505	Lieutenant	-0.1135438
-4.097505	Likes	-0.1135438
-4.097505	Lion	-0.1135438
-4.097505	Lip	-0.1135438
-4.097505	Lisa	-0.1135438
-4.097505	Lithography	-0.1135438
-4.097505	Look	-0.1135438
-3.829278	Los	-0.2789672
-4.097505	Lower	-0.1135438
-4.097505	Lt.	-0.1135438
-4.097505	Luck	-0.1135438
-4.097505	Lutainst	-0.1135438
-3.914812	M	-0.1135438
-4.097505	Ma	-0.1135438
-4.097505	Machine	-0.1135438
-4.097505	Mafia	-0.1135438
-3.558741	Magistrate	-0.3282516
-4.097505	Magway	-0.1135438
-4.097505	MahaBandula	-0.1135438
-3.829278	Major	-0.2050871
-4.097505	Malaysia	-0.1135438
-4.097505	Male	-0.1135438
-3.914812	Manager	-0.1966027
-4.097505	Managing	-0.1135438
-3.914812	Mandalay	-0.1135438
-4.097505	Mane	-0.1135438
-4.097505	Manufacturing	-0.1135438
-4.097505	Maria	-0.1135438
-4.097505	Mark	-0.1135438
-4.097505	Market	-0.1135438
-4.097505	Marriott	-0.1135438
-4.097505	Marx	-0.1135438
-3.914812	Mary	-0.1135438
-4.097505	Mason	-0.1135438
-4.097505	Massachusetts	-0.1135438
-3.914812	Master	-0.1135438
-4.097505	Mataya	-0.1135438
-4.097505	Maternal	-0.1135438
-4.097505	Maternity	-0.1135438
-4.097505	Mathematics	-0.1135438
-4.097505	Mawlamyaing	-0.1135438
-4.097505	May	-0.1135438
-4.097505	Maybe	-0.1135438
-4.097505	Mayor	-0.1135438
-4.097505	Measles	-0.1135438
-4.097505	Mechanics	-0.1135438
-4.097505	Med	-0.1135438
-3.558741	Medical	-0.1684609
-4.097505	Medicine	-0.1135438
-4.097505	Medium	-0.1135438
-4.097505	Meroni	-0.1135438
-4.097505	Metallurgy	-0.1135438
-4.097505	Meterology	-0.1135438
-3.914812	Mg	-0.1135438
-3.558741	Mi	-0.2553732
-4.097505	Miami	-0.1135438
-4.097505	Michael	-0.1135438
-4.097505	Microbiology	-0.1135438
-4.097505	Microsoft	-0.1135438
-3.914812	Military	-0.1135438
-4.097505	Mill	-0.1135438
-4.097505	Mina	-0.1135438
-4.097505	Minbu	-0.1135438
-4.097505	Miner	-0.1135438
-4.097505	Mingaladon	-0.1135438
-4.097505	Minister	-0.1135438
-3.914812	Minnie	-0.1135438
-4.097505	Misappropriation	-0.1135438
-4.097505	Missed	-0.1135438
-4.097505	Mistress	-0.1135438
-4.097505	Mole	-0.1135438
-4.097505	Monday	-0.1135438
-4.097505	Monju	-0.1135438
-4.097505	MonteneroEmbassy	-0.1135438
-4.097505	Morphology	-0.1135438
-4.097505	Moulder	-0.1135438
-4.097505	Moustache	-0.1135438
-3.829278	Mr.	-0.2313416
-4.097505	Mr.Black	-0.1135438
-4.097505	Mr.John	-0.1135438
-4.097505	Mr.Peter	-0.1135438
-4.097505	Mr.Smith	-0.1135438
-3.914812	Mrs.	-0.1671158
-3.914812	Ms.	-0.1135438
-3.829278	Mu	-0.1448879
-4.097505	Munich	-0.1135438
-4.097505	Muse	-0.1135438
-4.097505	Musician	-0.1135438
-4.097505	Muslim	-0.1135438
-3.673276	Mya	-0.1395043
-3.558741	Myanmar	-0.1671158
-4.097505	Mycology	-0.1135438
-4.097505	Myology	-0.1135438
-4.097505	Naik	-0.1135438
-3.914812	Nail	-0.1135438
-4.097505	Nape	-0.1135438
-4.097505	Navigation	-0.1135438
-3.914812	Navy	-0.1135438
-4.097505	Necessity	-0.1135438
-4.097505	Negtune	-0.1135438
-4.097505	Nepal	-0.1135438
-4.097505	Nervous	-0.1135438
-4.097505	Net	-0.1135438
-4.097505	Neurology	-0.1135438
-4.097505	Nevertheless	-0.1135438
-3.829278	New	-0.2789672
-4.097505	Newton	-0.1135438
-4.097505	Next	-0.1135438
-4.097505	Ni	-0.1135438
-3.914812	No	-0.1135438
-4.097505	No.	-0.1135438
-4.097505	No.3	-0.1135438
-4.097505	No.49	-0.1135438
-3.914812	Nose	-0.1135438
-4.097505	Nostrial	-0.1135438
-4.097505	Note	-0.1135438
-4.097505	Nu	-0.1135438
-4.097505	Nyang	-0.1135438
-4.097505	Nyoumi	-0.1135438
-4.097505	Nyung	-0.1135438
-3.914812	OK	-0.1135438
-3.914812	OUCH	-0.1135438
-4.097505	Oaths	-0.1135438
-4.097505	Objection	-0.1135438
-4.097505	Obstetrics	-0.1135438
-4.097505	Occasionally	-0.1135438
-4.097505	October	-0.1135438
-4.097505	Offence	-0.1135438
-4.097505	Office	-0.1135438
-3.139991	Officer	-0.7084628
-4.097505	Official	-0.1135438
-4.097505	Oh	-0.1135438
-3.914812	Ohio	-0.1135438
-4.097505	Oo	-0.1135438
-4.097505	Opportunists	-0.1135438
-4.097505	Opthalmology	-0.1135438
-4.097505	Optics	-0.1135438
-4.097505	Optional	-0.1135438
-4.097505	Orbit	-0.1135438
-4.097505	Ordering	-0.1135438
-4.097505	Ordnance	-0.1135438
-4.097505	Oregon	-0.1135438
-4.097505	Orlando	-0.1135438
-4.097505	Ornithology	-0.1135438
-4.097505	Orthodentics	-0.1135438
-4.097505	Orthopaedics	-0.1135438
-4.097505	Pagoda	-0.1135438
-4.097505	Pahu	-0.1135438
-4.097505	Painter	-0.1135438
-4.097505	Painting	-0.1135438
-4.097505	Palaeontology	-0.1135438
-4.097505	Palmistry	-0.1135438
-4.097505	Park	-0.1135438
-4.097505	Parking	-0.1135438
-4.097505	Patron	-0.1135438
-4.097505	Paw	-0.1135438
-4.097505	Paying	-0.1135438
-4.097505	Payment	-0.1135438
-4.097505	Pediatrician	-0.1135438
-4.097505	Pelvis	-0.1135438
-4.097505	Pennsylvania	-0.1135438
-4.097505	Penny	-0.1135438
-4.097505	Pensioner	-0.1135438
-4.097505	People	-0.1135438
-3.914812	Personal	-0.1135438
-4.097505	Personality	-0.1135438
-4.097505	Peter	-0.1135438
-4.097505	Petition	-0.1135438
-4.097505	Petrology	-0.1135438
-4.097505	Pharmaceutics	-0.1135438
-4.097505	Pharmacology	-0.1135438
-4.097505	Phil	-0.1135438
-4.097505	Philidalphia	-0.1135438
-4.097505	Philippines	-0.1135438
-4.097505	Philosophy	-0.1135438
-4.097505	Phonetics	-0.1135438
-4.097505	Photography	-0.1135438
-4.097505	Physical	-0.1135438
-4.097505	Physician	-0.1135438
-4.097505	Physics	-0.1135438
-4.097505	Physiology	-0.1135438
-4.097505	Pinlong	-0.1135438
-4.097505	Pittsburgh	-0.1135438
-4.097505	Pity	-0.1135438
-4.097505	Plaint	-0.1135438
-4.097505	Plaintiff	-0.1135438
-4.097505	Plam	-0.1135438
-4.097505	Planitiff	-0.1135438
-4.097505	Plantation	-0.1135438
-4.097505	Plasticsurgery	-0.1135438
-4.097505	Platform	-0.1135438
-4.097505	Platoon	-0.1135438
-4.097505	Pleader	-0.1135438
-4.097505	Polio	-0.1135438
-4.097505	Position	-0.1135438
-4.097505	PostalStamp	-0.1135438
-3.914812	Power	-0.1671158
-4.097505	Practitinner	-0.1135438
-4.097505	Prasitology	-0.1135438
-4.097505	Presiding	-0.1135438
-4.097505	Princeton	-0.1135438
-4.097505	Printer	-0.1135438
-4.097505	Pro	-0.1135438
-4.097505	Procedure	-0.1135438
-4.097505	Programmer	-0.1135438
-4.097505	Promisor	-0.1135438
-4.097505	Promissory	-0.1135438
-4.097505	Prosecution	-0.1135438
-4.097505	Prostitutes	-0.1135438
-4.097505	Psychiatric	-0.1135438
-4.097505	Psychology	-0.1135438
-4.097505	Public	-0.1135438
-4.097505	Publisher	-0.1135438
-4.097505	Purple	-0.1135438
-3.829278	Quarter	-0.1671158
-4.097505	R	-0.1135438
-4.097505	Rahu	-0.1135438
-4.097505	Rape	-0.1135438
-4.097505	Rear	-0.1135438
-4.097505	Receiver	-0.1135438
-4.097505	Rector	-0.1135438
-4.097505	Red	-0.1135438
-4.097505	Reformation	-0.1135438
-4.097505	Regimental	-0.1135438
-4.097505	Registrar	-0.1135438
-4.097505	Reporter	-0.1135438
-3.914812	Research	-0.1966027
-4.097505	Restaurant	-0.1135438
-4.097505	Revenue	-0.1135438
-4.097505	Rhinocerous	-0.1135438
-4.097505	Richard	-0.1135438
-4.097505	Rick	-0.1135438
-4.097505	Rivers	-0.1135438
-4.097505	Rome	-0.1135438
-4.097505	Ronda	-0.1135438
-3.914812	Rose	-0.1135438
-4.097505	Royal	-0.1135438
-4.097505	Rrisoner	-0.1135438
-4.097505	Rule	-0.1135438
-4.097505	Run	-0.1135438
-4.097505	Russian	-0.1135438
-4.097505	Ryan	-0.1135438
-4.097505	Sally	-0.1135438
-4.097505	Sambur	-0.1135438
-4.097505	Sarah	-0.1135438
-4.097505	Satur	-0.1135438
-3.914812	Saturday	-0.1135438
-4.097505	Sayadaw	-0.1135438
-4.097505	Scar	-0.1135438
-4.097505	Science	-0.1135438
-4.097505	Scrulptor	-0.1135438
-4.097505	Seattle	-0.1135438
-4.097505	Secondary	-0.1135438
-4.097505	Secrets	-0.1135438
-4.097505	Section	-0.1135438
-4.097505	Selection	-0.1135438
-3.914812	Senior	-0.1530906
-4.097505	Sentences	-0.1135438
-4.097505	September	-0.1135438
-4.097505	Serbia	-0.1135438
-3.673276	Sergeant	-0.1786714
-3.914812	Services	-0.1135438
-4.097505	Sheila	-0.1135438
-4.097505	Shell	-0.1135438
-3.829278	Shopping	-0.1135438
-4.097505	Shwe	-0.1135438
-4.097505	Shwedagon	-0.1135438
-4.097505	Simple	-0.1135438
-4.097505	Sinct	-0.1135438
-3.829278	Singapore	-0.1671158
-4.097505	Singaporean	-0.1135438
-3.914812	Smith	-0.1395042
-4.097505	Sneakers	-0.1135438
-4.097505	Snowing	-0.1135438
-4.097505	Society	-0.1135438
-4.097505	Sociology	-0.1135438
-3.914812	Soe	-0.1135438
-4.097505	Solidarity	-0.1135438
-4.097505	Specialist	-0.1135438
-4.097505	Spectrometry	-0.1135438
-4.097505	Srilanka	-0.1135438
-3.673276	Staff	-0.1786714
-4.097505	Stamp	-0.1135438
-4.097505	Stastician	-0.1135438
-4.097505	Stastics	-0.1135438
-4.097505	States	-0.1135438
-4.097505	Station	-0.1135438
-4.097505	Stevedone	-0.1135438
-4.097505	Store	-0.1135438
-4.097505	Street	-0.1135438
-4.097505	Studying	-0.1135438
-3.914812	Su	-0.1135438
-4.097505	Sub	-0.1135438
-4.097505	Successor	-0.1135438
-4.097505	Sule	-0.1135438
-3.914812	Sunday	-0.1966027
-4.097505	Superior	-0.1135438
-4.097505	Supermarket	-0.1135438
-4.097505	Supervisor	-0.1135438
-4.097505	Susan	-0.1135438
-4.097505	Suspender	-0.1135438
-3.914812	Swe	-0.1135438
-4.097505	Sweater	-0.1135438
-4.097505	Swelling	-0.1135438
-4.097505	Sydney	-0.1135438
-3.829278	TV	-0.1530906
-4.097505	Taipei	-0.1135438
-4.097505	Take	-0.1135438
-4.097505	Tarsi	-0.1135438
-4.097505	Taunggyi	-0.1135438
-4.097505	Temple	-0.1135438
-4.097505	Terry	-0.1135438
-4.097505	Texas	-0.1135438
-4.097505	Thailand	-0.1135438
-4.097505	Than	-0.1135438
-3.914812	That	-0.1135438
-4.097505	The	-0.1135438
-4.097505	Thein	-0.1135438
-4.097505	Theology	-0.1135438
-4.097505	Thereupon	-0.1135438
-4.097505	Thida	-0.1135438
-4.097505	Thilashin	-0.1135438
-3.914812	Things	-0.1966027
-4.097505	Third	-0.1135438
-4.097505	Throat	-0.1135438
-4.097505	Thugyi	-0.1135438
-4.097505	Thumb	-0.1135438
-4.097505	Thursday	-0.1135438
-4.097505	Ticketing	-0.1135438
-4.097505	Tiger	-0.1135438
-4.097505	Time	-0.1135438
-3.829278	Toe	-0.1135438
-4.097505	Tom	-0.1135438
-3.914812	Tomorrow	-0.1135438
-4.097505	Tony	-0.1135438
-3.673276	Township	-0.1684609
-4.097505	Toxicology	-0.1135438
-3.673276	Train	-0.1530906
-4.097505	Training	-0.1135438
-4.097505	Transactor	-0.1135438
-4.097505	Travel	-0.1135438
-4.097505	Travelocity	-0.1135438
-4.097505	Trigonometry	-0.1135438
-4.097505	Trishaw	-0.1135438
-4.097505	Trism	-0.1135438
-4.097505	Trustees	-0.1135438
-4.097505	Tuberculosis	-0.1135438
-4.097505	Tuequoise	-0.1135438
-3.673276	Tun	-0.1966027
-4.097505	Tutor	-0.1135438
-4.097505	Twin	-0.1135438
-3.673276	U	-0.1671158
-3.914812	U.S.	-0.1135438
-3.914812	US	-0.1135438
-4.097505	Union	-0.1135438
-4.097505	United	-0.1135438
-4.097505	Universities	-0.1135438
-4.097505	University	-0.1135438
-4.097505	Vacant	-0.1135438
-4.097505	Vaccinated	-0.1135438
-4.097505	Vagina	-0.1135438
-4.097505	Vangauard	-0.1135438
-4.097505	Vanity	-0.1135438
-4.097505	Veterinary	-0.1135438
-4.097505	Vietnam	-0.1135438
-4.097505	Virology	-0.1135438
-4.097505	Visa	-0.1135438
-4.097505	Visiting	-0.1135438
-4.097505	Volunter	-0.1135438
-4.097505	Waht	-0.1135438
-4.097505	Waist	-0.1135438
-4.097505	Waiter	-0.1135438
-4.097505	Waitress	-0.1135438
-4.097505	Warden	-0.1135438
-4.097505	Warrant	-0.1135438
-4.097505	Washington	-0.1135438
-4.097505	We	-0.1135438
-4.097505	Wednesday	-0.1135438
-4.097505	Welcling	-0.1135438
-4.097505	What	-0.1135438
-4.097505	When	-0.1135438
-4.097505	Which	-0.1135438
-4.097505	Whre	-0.1135438
-4.097505	Why	-0.1135438
-3.914812	Win	-0.1135438
-4.097505	Withdraw	-0.1135438
-4.097505	Witness	-0.1135438
-4.097505	Womb	-0.1135438
-4.097505	Women	-0.1135438
-3.914812	Work	-0.1966027
-4.097505	Workman	-0.1135438
-4.097505	Wreather	-0.1135438
-4.097505	Wrist	-0.1135438
-4.097505	Yango	-0.1135438
-3.829278	Yangon	-0.1135438
-3.914812	Yes	-0.1671158
-4.097505	York	-0.1135438
-4.097505	You	-0.1135438
-4.097505	Zoo	-0.1135438
-4.097505	Zoology	-0.1135438
-2.052732	a	-0.2424636
-3.914812	a.m	-0.1966027
-4.097505	abeyance	-0.1135438
-4.097505	ability	-0.1135438
-3.914812	abject	-0.1135438
-3.673276	able	-0.2313416
-4.097505	abolished	-0.1135438
-2.757216	about	-0.1735757
-4.097505	abroad	-0.1135438
-4.097505	absent	-0.1135438
-4.097505	absenth	-0.1135438
-4.097505	absolutely	-0.1135438
-4.097505	absorb	-0.1135438
-4.097505	abundance	-0.1135438
-3.829278	accept	-0.1135438
-4.097505	acceptance	-0.1135438
-4.097505	access	-0.1135438
-3.468195	accident	-0.2842683
-4.097505	accidentally	-0.1135438
-4.097505	accidently	-0.1135438
-4.097505	accidents	-0.1135438
-4.097505	accompaniment	-0.1135438
-3.829278	accord	-0.1135438
-4.097505	according	-0.1135438
-3.468195	account	-0.1769054
-4.097505	accountable	-0.1135438
-3.914812	accounted	-0.1966027
-3.914812	accounts	-0.1966027
-4.097505	accuse	-0.1135438
-3.914812	accused	-0.1135438
-4.097505	accustomed	-0.1135438
-4.097505	ache	-0.1135438
-4.097505	aches	-0.1135438
-4.097505	achieve	-0.1135438
-4.097505	achool	-0.1135438
-4.097505	acknowledgement	-0.1135438
-4.097505	acquaint	-0.1135438
-3.914812	acquaintance	-0.1135438
-4.097505	acquainted	-0.1135438
-4.097505	acquitted	-0.1135438
-3.914812	across	-0.1135438
-3.829278	act	-0.1395043
-3.468195	action	-0.2842683
-4.097505	actiong	-0.1135438
-3.914812	actions	-0.1135438
-4.097505	active	-0.1135438
-4.097505	actual	-0.1135438
-4.097505	actuality	-0.1135438
-3.829278	add	-0.1135438
-4.097505	adding	-0.1135438
-3.914812	addition	-0.1135438
-3.329457	address	-0.3282516
-4.097505	adjectives	-0.1135438
-3.914812	admission	-0.1135438
-3.914812	admit	-0.1135438
-4.097505	admitted	-0.1135438
-4.097505	advance	-0.1135438
-3.673276	advantage	-0.1448879
-4.097505	adverse	-0.1135438
-4.097505	adversely	-0.1135438
-4.097505	advertise	-0.1135438
-4.097505	advices	-0.1135438
-3.914812	advise	-0.1135438
-4.097505	aegis	-0.1135438
-4.097505	aeroplane	-0.1135438
-4.097505	affair	-0.1135438
-4.097505	affected	-0.1135438
-4.097505	afford	-0.1135438
-4.097505	afield	-0.1135438
-3.393309	afraid	-0.2873661
-3.008516	after	-0.1297584
-3.468195	afternoon	-0.1289331
-3.224472	again	-0.1916785
-3.829278	against	-0.1671158
-3.393309	age	-0.1684609
-4.097505	agencies	-0.1135438
-4.097505	agenda	-0.1135438
-4.097505	ages	-0.1135438
-3.558741	ago	-0.500816
-3.914812	agree	-0.1135438
-3.673276	agreed	-0.1530906
-3.829278	agreement	-0.1135438
-4.097505	agrees	-0.1135438
-3.914812	ahead	-0.1966027
-4.097505	aid	-0.1135438
-4.097505	aiding	-0.1135438
-3.829278	aim	-0.1135438
-3.673276	air	-0.1306772
-3.829278	aircraft	-0.1135438
-3.393309	airline	-0.1769054
-4.097505	airlines	-0.1135438
-4.097505	airplane	-0.1135438
-3.829278	airport	-0.1530906
-3.829278	airs	-0.1671158
-4.097505	aked	-0.1135438
-4.097505	alarm	-0.1135438
-3.829278	alcohol	-0.1135438
-4.097505	alexandrian	-0.1135438
-4.097505	alight	-0.1135438
-4.097505	alisn	-0.1135438
-4.097505	alive	-0.1135438
-2.790241	all	-0.1430269
-3.914812	allergic	-0.1966027
-4.097505	allergies	-0.1135438
-4.097505	allow	-0.1135438
-4.097505	allowance	-0.1135438
-4.097505	allowed	-0.1135438
-4.097505	almost	-0.1135438
-3.558741	alone	-0.1135438
-3.829278	along	-0.1135438
-4.097505	alphabetical	-0.1135438
-3.558741	already	-0.1135438
-4.097505	alright	-0.1135438
-3.329457	also	-0.1135438
-4.097505	alternative	-0.1135438
-4.097505	although	-0.1135438
-3.914812	altogether	-0.1135438
-3.393309	always	-0.1135438
-3.673276	am	-0.1164612
-4.097505	ambit	-0.1135438
-4.097505	ambition	-0.1135438
-4.097505	ambush	-0.1135438
-4.097505	amiss	-0.1135438
-3.914812	among	-0.1135438
-3.914812	amount	-0.1966027
-4.097505	amounts	-0.1135438
-2.621729	an	-0.2269635
-4.097505	analogy	-0.1135438
-4.097505	anchor	-0.1135438
-3.914812	ancient	-0.1135438
-2.124249	and	-0.1640321
-3.829278	angry	-0.1671158
-4.097505	anniversary	-0.1135438
-3.914812	announce	-0.1135438
-4.097505	annoyed	-0.1135438
-3.558741	another	-0.1135438
-4.097505	answer	-0.1135438
-4.097505	answers	-0.1135438
-3.914812	ant	-0.1671158
-4.097505	anthurium	-0.1135438
-4.097505	anti	-0.1135438
-4.097505	anxious	-0.1135438
-3.103207	any	-0.1186132
-4.097505	anybody	-0.1135438
-3.673276	anyone	-0.1135438
-3.673276	anything	-0.1671158
-4.097505	anywhere	-0.1135438
-3.103207	apart	-0.743225
-3.914812	apartment	-0.1966027
-4.097505	apologies	-0.1135438
-4.097505	apparent	-0.1135438
-3.914812	appear	-0.1135438
-4.097505	appearance	-0.1135438
-4.097505	appearances	-0.1135438
-3.914812	appetite	-0.1966027
-3.558741	apple	-0.2026461
-3.829278	apples	-0.1135438
-3.914812	apply	-0.1671158
-4.097505	appoint	-0.1135438
-3.914812	appointment	-0.1135438
-4.097505	apportion	-0.1135438
-4.097505	apprehensive	-0.1135438
-4.097505	approval	-0.1135438
-4.097505	archaeological	-0.1135438
-4.097505	architect	-0.1135438
-2.392099	are	-0.2814114
-4.097505	area	-0.1135438
-3.829278	aren	-0.2789672
-4.097505	argue	-0.1135438
-4.097505	argued	-0.1135438
-3.829278	arguing	-0.1135438
-3.914812	argument	-0.1135438
-4.097505	arguments	-0.1135438
-3.673276	arm	-0.2050871
-4.097505	armed	-0.1135438
-4.097505	armoury	-0.1135438
-4.097505	army	-0.1135438
-3.468195	around	-0.1884264
-3.914812	arrange	-0.1135438
-4.097505	arrangements	-0.1135438
-4.097505	arrant	-0.1135438
-4.097505	arrears	-0.1135438
-3.329457	arrive	-0.2269635
-3.673276	arrived	-0.1530906
-3.829278	arriving	-0.1671158
-3.829278	artist	-0.1671158
-4.097505	artistic	-0.1135438
-3.103207	as	-0.1529118
-3.914812	ashamed	-0.1135438
-3.329457	ask	-0.1448879
-3.329457	asked	-0.1924953
-3.914812	asks	-0.1135438
-4.097505	asleep	-0.1135438
-4.097505	asparagus	-0.1135438
-4.097505	aspirin	-0.1135438
-4.097505	assault	-0.1135438
-4.097505	assistance	-0.1135438
-4.097505	association	-0.1135438
-4.097505	assume	-0.1135438
-4.097505	asteriod	-0.1135438
-4.097505	astonishment	-0.1135438
-2.359089	at	-0.2932415
-3.914812	ate	-0.1135438
-4.097505	atomic	-0.1135438
-4.097505	attack	-0.1135438
-3.914812	attempt	-0.1135438
-4.097505	attend	-0.1135438
-4.097505	attendents	-0.1135438
-3.673276	attention	-0.1530906
-4.097505	attracted	-0.1135438
-3.914812	auction	-0.1966027
-3.914812	authority	-0.1135438
-4.097505	aution	-0.1135438
-4.097505	automated	-0.1135438
-4.097505	automatic	-0.1135438
-4.097505	averse	-0.1135438
-4.097505	avocado	-0.1135438
-4.097505	avoid	-0.1135438
-3.914812	awake	-0.1135438
-4.097505	award	-0.1135438
-3.139991	away	-0.2575172
-3.914812	awkward	-0.1135438
-4.097505	awoke	-0.1135438
-3.914812	b	-0.1135438
-4.097505	baby	-0.1135438
-4.097505	bachelor	-0.1135438
-2.93082	back	-0.2517131
-4.097505	bacon	-0.1135438
-3.069297	bad	-0.2267389
-4.097505	badge	-0.1135438
-3.829278	badly	-0.1135438
-3.558741	bag	-0.1530906
-3.829278	bags	-0.1671158
-4.097505	bail	-0.1135438
-3.914812	bake	-0.1135438
-3.914812	balance	-0.1135438
-3.914812	ball	-0.1135438
-4.097505	balls	-0.1135438
-4.097505	bamboo	-0.1135438
-3.914812	banana	-0.1966027
-4.097505	bananas	-0.1135438
-4.097505	banded	-0.1135438
-3.829278	bank	-0.1684609
-4.097505	banknotes	-0.1135438
-4.097505	banks	-0.1135438
-4.097505	bar	-0.1135438
-4.097505	bargain	-0.1135438
-4.097505	bargaing	-0.1135438
-4.097505	barn	-0.1135438
-3.914812	barracks	-0.1966027
-4.097505	barren	-0.1135438
-4.097505	barricades	-0.1135438
-4.097505	barter	-0.1135438
-4.097505	baseball	-0.1135438
-4.097505	basement	-0.1135438
-3.914812	basic	-0.1135438
-3.829278	basis	-0.1671158
-3.914812	basket	-0.1135438
-3.914812	basketball	-0.1135438
-4.097505	baskets	-0.1135438
-4.097505	bath	-0.1135438
-4.097505	bathe	-0.1135438
-3.914812	battery	-0.1966027
-4.097505	baying	-0.1135438
-4.097505	bayonet	-0.1135438
-3.914812	bazaar	-0.1135438
-2.864938	be	-0.1465362
-3.914812	beach	-0.1135438
-3.468195	bean	-0.2553732
-3.673276	bear	-0.1135438
-4.097505	bears	-0.1135438
-4.097505	beast	-0.1135438
-3.914812	beat	-0.1135438
-3.914812	beats	-0.1966027
-3.393309	beautiful	-0.2491549
-3.914812	became	-0.1135438
-3.673276	because	-0.1135438
-3.829278	become	-0.1135438
-3.914812	bed	-0.1135438
-3.558741	bedroom	-0.1395043
-3.914812	beds	-0.1135438
-4.097505	bee	-0.1135438
-3.18018	been	-0.1472158
-4.097505	beet	-0.1135438
-4.097505	beetle	-0.1135438
-3.037844	before	-0.1808929
-3.829278	began	-0.2313416
-4.097505	begin	-0.1135438
-4.097505	beginner	-0.1135438
-3.914812	behave	-0.1966027
-4.097505	behaved	-0.1135438
-3.914812	behaviour	-0.1966027
-3.914812	behind	-0.1671158
-3.18018	being	-0.1135438
-4.097505	beleives	-0.1135438
-4.097505	belief	-0.1135438
-3.468195	believe	-0.1684609
-4.097505	believed	-0.1135438
-3.829278	bell	-0.1530907
-4.097505	bells	-0.1135438
-4.097505	bend	-0.1135438
-4.097505	beneath	-0.1135438
-4.097505	benefit	-0.1135438
-4.097505	benefits	-0.1135438
-3.558741	beside	-0.2842684
-4.097505	besides	-0.1135438
-3.558741	best	-0.1558138
-4.097505	bet	-0.1135438
-4.097505	betel	-0.1135438
-4.097505	betray	-0.1135438
-3.329457	better	-0.1448879
-4.097505	between	-0.1135438
-3.829278	beyond	-0.1135438
-4.097505	beyound	-0.1135438
-4.097505	bicycle	-0.1135438
-4.097505	bicycles	-0.1135438
-4.097505	bid	-0.1135438
-3.914812	bidding	-0.1135438
-3.914812	big	-0.1135438
-4.097505	biggest	-0.1135438
-3.914812	bill	-0.1135438
-4.097505	bind	-0.1135438
-3.468195	bird	-0.2196135
-3.673276	birds	-0.1135438
-3.914812	birth	-0.1135438
-3.829278	birthday	-0.1135438
-3.829278	bite	-0.1135438
-4.097505	bites	-0.1135438
-4.097505	bitten	-0.1135438
-4.097505	bitter	-0.1135438
-3.558741	black	-0.1769055
-3.914812	blackboard	-0.1671158
-3.914812	blame	-0.1135438
-4.097505	blamed	-0.1135438
-3.914812	blazes	-0.1135438
-4.097505	bless	-0.1135438
-3.914812	blew	-0.1530906
-3.914812	blind	-0.1966027
-4.097505	blonde	-0.1135438
-3.914812	blood	-0.1966027
-3.914812	blouse	-0.1135438
-3.829278	blow	-0.1671158
-4.097505	blown	-0.1135438
-3.329457	blue	-0.1569079
-4.097505	boast	-0.1135438
-4.097505	boastful	-0.1135438
-3.829278	boat	-0.1884264
-4.097505	bodied	-0.1135438
-4.097505	body	-0.1135438
-4.097505	boil	-0.1135438
-4.097505	boiled	-0.1135438
-4.097505	bold	-0.1135438
-3.673276	bomb	-0.2313416
-4.097505	bomber	-0.1135438
-3.829278	bone	-0.2789672
-4.097505	bones	-0.1135438
-4.097505	bonus	-0.1135438
-3.103207	book	-0.1810056
-3.673276	booked	-0.1448879
-3.673276	booking	-0.2313416
-3.829278	books	-0.1135438
-4.097505	boquet	-0.1135438
-4.097505	bore	-0.1135438
-3.914812	boring	-0.1966027
-3.914812	born	-0.1135438
-3.914812	borrow	-0.1135438
-3.829278	boss	-0.1135438
-4.097505	botanical	-0.1135438
-4.097505	both	-0.1135438
-3.914812	bother	-0.1135438
-4.097505	bothering	-0.1135438
-3.829278	bottle	-0.1530906
-3.829278	bought	-0.1530906
-4.097505	bounds	-0.1135438
-4.097505	bow	-0.1135438
-4.097505	bowel	-0.1135438
-4.097505	bowl	-0.1135438
-3.393309	box	-0.2165603
-3.393309	boy	-0.1640419
-4.097505	boyfriend	-0.1135438
-3.468195	boys	-0.1328672
-3.914812	braggart	-0.1135438
-4.097505	bragged	-0.1135438
-4.097505	braggert	-0.1135438
-4.097505	brahminy	-0.1135438
-4.097505	brakes	-0.1135438
-4.097505	brand	-0.1135438
-3.914812	brave	-0.1966027
-3.914812	breach	-0.1966027
-3.829278	bread	-0.1135438
-4.097505	break	-0.1135438
-3.829278	breakfast	-0.1671158
-4.097505	breaking	-0.1135438
-4.097505	breakthrough	-0.1135438
-3.914812	breathe	-0.1135438
-4.097505	breathed	-0.1135438
-4.097505	breed	-0.1135438
-4.097505	bribe	-0.1135438
-4.097505	bridal	-0.1135438
-4.097505	bright	-0.1135438
-4.097505	brighter	-0.1135438
-3.673276	bring	-0.1135438
-4.097505	bringjal	-0.1135438
-4.097505	brings	-0.1135438
-4.097505	brittle	-0.1135438
-4.097505	broadcast	-0.1135438
-4.097505	brochure	-0.1135438
-3.914812	brochures	-0.1530906
-4.097505	broke	-0.1135438
-4.097505	broken	-0.1135438
-3.393309	brother	-0.215338
-3.829278	brothers	-0.1135438
-3.558741	brought	-0.1135438
-3.558741	brown	-0.1769055
-4.097505	brownie	-0.1135438
-4.097505	bruise	-0.1135438
-4.097505	bruite	-0.1135438
-4.097505	brunetten	-0.1135438
-4.097505	brunt	-0.1135438
-3.914812	brush	-0.1135438
-4.097505	brutal	-0.1135438
-4.097505	brute	-0.1135438
-4.097505	brutish	-0.1135438
-4.097505	bubble	-0.1135438
-4.097505	buccaneer	-0.1135438
-4.097505	buck	-0.1135438
-4.097505	bucket	-0.1135438
-4.097505	bucketful	-0.1135438
-4.097505	buckle	-0.1135438
-4.097505	bud	-0.1135438
-4.097505	buddhism	-0.1135438
-4.097505	budge	-0.1135438
-3.829278	budget	-0.1135438
-4.097505	buff	-0.1135438
-4.097505	buffalo	-0.1135438
-4.097505	buffer	-0.1135438
-4.097505	buffet	-0.1135438
-4.097505	buffoon	-0.1135438
-3.914812	bug	-0.1135438
-4.097505	bugaboo	-0.1135438
-4.097505	bugbear	-0.1135438
-4.097505	bugle	-0.1135438
-4.097505	bugler	-0.1135438
-3.829278	build	-0.1135438
-4.097505	builder	-0.1135438
-3.829278	building	-0.1530906
-4.097505	buildings	-0.1135438
-3.914812	built	-0.1135438
-3.914812	bulb	-0.1135438
-4.097505	bulbul	-0.1135438
-4.097505	bulk	-0.1135438
-3.914812	bull	-0.1135438
-4.097505	bullet	-0.1135438
-4.097505	bulletin	-0.1135438
-4.097505	bullion	-0.1135438
-4.097505	bullock	-0.1135438
-4.097505	bully	-0.1135438
-4.097505	bum	-0.1135438
-4.097505	bump	-0.1135438
-4.097505	bumptious	-0.1135438
-4.097505	bun	-0.1135438
-3.914812	bunch	-0.1135438
-4.097505	bundle	-0.1135438
-4.097505	bung	-0.1135438
-4.097505	bunk	-0.1135438
-4.097505	bunny	-0.1135438
-4.097505	burden	-0.1135438
-4.097505	bureau	-0.1135438
-4.097505	burglar	-0.1135438
-4.097505	burgle	-0.1135438
-4.097505	burial	-0.1135438
-4.097505	buried	-0.1135438
-4.097505	burly	-0.1135438
-3.914812	burn	-0.1135438
-4.097505	burner	-0.1135438
-3.829278	burning	-0.1135438
-4.097505	burnish	-0.1135438
-3.914812	burnt	-0.1135438
-4.097505	burst	-0.1135438
-3.914812	bury	-0.1135438
-3.18018	bus	-0.205179
-4.097505	buses	-0.1135438
-4.097505	bushy	-0.1135438
-3.224472	business	-0.1914271
-4.097505	businessman	-0.1135438
-4.097505	bust	-0.1135438
-3.468195	busy	-0.1395043
-3.037844	but	-0.1790275
-4.097505	butane	-0.1135438
-4.097505	butch	-0.1135438
-4.097505	butcher	-0.1135438
-4.097505	buts	-0.1135438
-4.097505	butt	-0.1135438
-4.097505	butter	-0.1135438
-3.914812	butterfly	-0.1671158
-3.914812	button	-0.1135438
-4.097505	buxon	-0.1135438
-3.393309	buy	-0.1356992
-4.097505	buyer	-0.1135438
-4.097505	buzz	-0.1135438
-2.757216	by	-0.179053
-3.673276	bye	-0.2553732
-4.097505	bypath	-0.1135438
-4.097505	bystander	-0.1135438
-4.097505	bystreet	-0.1135438
-3.914812	c	-0.1135438
-4.097505	cab	-0.1135438
-4.097505	cabaret	-0.1135438
-4.097505	cabbage	-0.1135438
-4.097505	cabin	-0.1135438
-4.097505	cabinet	-0.1135438
-4.097505	cable	-0.1135438
-4.097505	cacao	-0.1135438
-4.097505	cache	-0.1135438
-4.097505	cackle	-0.1135438
-4.097505	cactus	-0.1135438
-4.097505	cad	-0.1135438
-4.097505	cadaver	-0.1135438
-4.097505	cadaverous	-0.1135438
-4.097505	caddie	-0.1135438
-4.097505	caddy	-0.1135438
-4.097505	cadence	-0.1135438
-4.097505	cadet	-0.1135438
-4.097505	cadge	-0.1135438
-4.097505	cadre	-0.1135438
-4.097505	caesarian	-0.1135438
-4.097505	cafeteria	-0.1135438
-4.097505	caff	-0.1135438
-4.097505	cage	-0.1135438
-3.393309	cake	-0.3955418
-4.097505	calcium	-0.1135438
-4.097505	calculable	-0.1135438
-4.097505	calculate	-0.1135438
-4.097505	calculating	-0.1135438
-4.097505	calculation	-0.1135438
-4.097505	calculator	-0.1135438
-4.097505	calculus	-0.1135438
-4.097505	calendar	-0.1135438
-4.097505	calender	-0.1135438
-4.097505	calf	-0.1135438
-4.097505	calibre	-0.1135438
-4.097505	calico	-0.1135438
-3.18018	call	-0.247673
-3.829278	called	-0.1135438
-4.097505	calligraphy	-0.1135438
-3.558741	calling	-0.2050871
-4.097505	callosity	-0.1135438
-3.673276	calm	-0.1135438
-4.097505	calmly	-0.1135438
-4.097505	calorie	-0.1135438
-4.097505	calumny	-0.1135438
-4.097505	calve	-0.1135438
-4.097505	camaraderie	-0.1135438
-3.18018	came	-0.1374513
-4.097505	camel	-0.1135438
-4.097505	camera	-0.1135438
-4.097505	cami	-0.1135438
-4.097505	camouflage	-0.1135438
-4.097505	camp	-0.1135438
-4.097505	campaign	-0.1135438
-4.097505	campaigner	-0.1135438
-4.097505	campus	-0.1135438
-2.845025	can	-0.2642727
-4.097505	canadian	-0.1135438
-4.097505	canal	-0.1135438
-4.097505	canalize	-0.1135438
-4.097505	cancel	-0.1135438
-4.097505	cancelled	-0.1135438
-4.097505	candid	-0.1135438
-4.097505	candidate	-0.1135438
-4.097505	candidly	-0.1135438
-4.097505	candied	-0.1135438
-4.097505	candle	-0.1135438
-4.097505	candour	-0.1135438
-3.914812	candy	-0.1135438
-4.097505	cane	-0.1135438
-4.097505	canine	-0.1135438
-4.097505	cannibal	-0.1135438
-4.097505	cannon	-0.1135438
-4.097505	cannonade	-0.1135438
-3.673276	cannot	-0.1448879
-4.097505	canny	-0.1135438
-4.097505	canoe	-0.1135438
-4.097505	cant	-0.1135438
-4.097505	cantankerous	-0.1135438
-4.097505	canteen	-0.1135438
-4.097505	cantonment	-0.1135438
-4.097505	cantor	-0.1135438
-4.097505	canvas	-0.1135438
-4.097505	canvass	-0.1135438
-4.097505	canyon	-0.1135438
-4.097505	cap	-0.1135438
-4.097505	capability	-0.1135438
-4.097505	capacious	-0.1135438
-3.829278	capacity	-0.1135438
-4.097505	cape	-0.1135438
-3.914812	caper	-0.1135438
-4.097505	capillary	-0.1135438
-3.914812	capital	-0.1135438
-4.097505	capitalize	-0.1135438
-4.097505	capitulate	-0.1135438
-4.097505	capitulation	-0.1135438
-4.097505	capon	-0.1135438
-4.097505	caprice	-0.1135438
-4.097505	capricious	-0.1135438
-4.097505	caprize	-0.1135438
-4.097505	capsize	-0.1135438
-4.097505	capstan	-0.1135438
-4.097505	capsule	-0.1135438
-4.097505	captain	-0.1135438
-4.097505	captious	-0.1135438
-4.097505	captivate	-0.1135438
-4.097505	captivity	-0.1135438
-4.097505	captor	-0.1135438
-4.097505	capture	-0.1135438
-3.069297	car	-0.2788271
-4.097505	carafe	-0.1135438
-4.097505	carat	-0.1135438
-4.097505	caravan	-0.1135438
-4.097505	carbon	-0.1135438
-4.097505	carbonize	-0.1135438
-4.097505	carcass	-0.1135438
-3.468195	card	-0.1395043
-4.097505	cardboard	-0.1135438
-4.097505	cardiac	-0.1135438
-4.097505	cardigan	-0.1135438
-4.097505	cardinal	-0.1135438
-4.097505	cardiology	-0.1135438
-3.914812	cards	-0.1135438
-3.468195	care	-0.1769055
-4.097505	career	-0.1135438
-4.097505	carefree	-0.1135438
-3.829278	careful	-0.2050871
-4.097505	carefully	-0.1135438
-4.097505	careless	-0.1135438
-4.097505	carelessly	-0.1135438
-4.097505	careworn	-0.1135438
-4.097505	caricature	-0.1135438
-4.097505	caries	-0.1135438
-4.097505	carnal	-0.1135438
-4.097505	carnation	-0.1135438
-4.097505	carnival	-0.1135438
-4.097505	carnivore	-0.1135438
-4.097505	carnivorous	-0.1135438
-4.097505	carousal	-0.1135438
-4.097505	carouse	-0.1135438
-4.097505	carp	-0.1135438
-4.097505	carpal	-0.1135438
-4.097505	carpenter	-0.1135438
-4.097505	carpentry	-0.1135438
-4.097505	carpet	-0.1135438
-4.097505	carriage	-0.1135438
-3.914812	carried	-0.1966027
-3.829278	carrier	-0.1135438
-3.673276	carry	-0.2441258
-4.097505	carrying	-0.1135438
-3.558741	cars	-0.1395043
-3.914812	case	-0.1135438
-4.097505	cassia	-0.1135438
-3.914812	cast	-0.1135438
-3.558741	cat	-0.1839651
-3.914812	catch	-0.1135438
-4.097505	catchcold	-0.1135438
-4.097505	catches	-0.1135438
-4.097505	caterpillar	-0.1135438
-3.558741	catfish	-0.500816
-3.914812	cats	-0.1135438
-4.097505	cattle	-0.1135438
-3.673276	caught	-0.1530906
-4.097505	cauliflower	-0.1135438
-3.914812	cause	-0.1135438
-4.097505	causing	-0.1135438
-4.097505	cave	-0.1135438
-4.097505	ceiling	-0.1135438
-3.914812	cell	-0.1966027
-4.097505	centre	-0.1135438
-4.097505	certain	-0.1135438
-4.097505	certificate	-0.1135438
-4.097505	cetepede	-0.1135438
-3.914812	chair	-0.1448879
-4.097505	challenge	-0.1135438
-4.097505	chambers	-0.1135438
-3.914812	champae	-0.1966027
-3.914812	chance	-0.1966027
-3.914812	chances	-0.1135438
-3.558741	change	-0.1328672
-4.097505	changeable	-0.1135438
-3.914812	changed	-0.1135438
-4.097505	changes	-0.1135438
-4.097505	channel	-0.1135438
-3.329457	charge	-0.2623178
-4.097505	chargrin	-0.1135438
-4.097505	charmed	-0.1135438
-4.097505	charts	-0.1135438
-3.673276	cheaper	-0.2313416
-4.097505	cheapest	-0.1135438
-3.558741	check	-0.1395043
-4.097505	checks	-0.1135438
-4.097505	cheered	-0.1135438
-4.097505	chestnut	-0.1135438
-4.097505	chew	-0.1135438
-3.829278	chicken	-0.1135438
-4.097505	chief	-0.1135438
-3.829278	child	-0.1135438
-4.097505	childhood	-0.1135438
-4.097505	childish	-0.1135438
-3.103207	children	-0.1978472
-4.097505	china	-0.1135438
-4.097505	chinese	-0.1135438
-4.097505	chocolate	-0.1135438
-3.673276	choice	-0.1135438
-4.097505	choke	-0.1135438
-3.829278	choose	-0.1135438
-3.914812	choosing	-0.1966027
-3.914812	chop	-0.1671158
-4.097505	choreography	-0.1135438
-4.097505	chorus	-0.1135438
-4.097505	chose	-0.1135438
-4.097505	chosen	-0.1135438
-4.097505	cigaratte	-0.1135438
-4.097505	cigarettes	-0.1135438
-4.097505	circulation	-0.1135438
-3.558741	city	-0.1356993
-3.829278	claim	-0.1135438
-4.097505	clam	-0.1135438
-4.097505	clapping	-0.1135438
-3.558741	class	-0.1135438
-3.914812	classroom	-0.1135438
-4.097505	clausena	-0.1135438
-3.914812	clean	-0.1671158
-4.097505	cleaned	-0.1135438
-4.097505	cleaning	-0.1135438
-4.097505	clear	-0.1135438
-4.097505	cleark	-0.1135438
-3.829278	clearly	-0.1671158
-3.829278	clerk	-0.1671158
-3.914812	clever	-0.1966027
-4.097505	cleverest	-0.1135438
-4.097505	clients	-0.1135438
-4.097505	cliff	-0.1135438
-3.558741	climate	-0.2194505
-4.097505	climates	-0.1135438
-4.097505	climbed	-0.1135438
-4.097505	climbing	-0.1135438
-4.097505	clip	-0.1135438
-3.914812	clock	-0.1671158
-4.097505	clockwork	-0.1135438
-3.393309	close	-0.1306772
-4.097505	closed	-0.1135438
-3.914812	closer	-0.1135438
-4.097505	closest	-0.1135438
-4.097505	closing	-0.1135438
-4.097505	cloth	-0.1135438
-3.558741	clothes	-0.2050871
-3.914812	clothing	-0.1135438
-4.097505	cloud	-0.1135438
-3.914812	club	-0.1966027
-4.097505	clue	-0.1135438
-4.097505	clutched	-0.1135438
-4.097505	clutches	-0.1135438
-3.914812	co	-0.1966027
-4.097505	coastal	-0.1135438
-3.914812	coat	-0.1135438
-4.097505	cockroach	-0.1135438
-3.914812	code	-0.1135438
-3.673276	coffee	-0.1448879
-3.139991	cold	-0.2869434
-4.097505	collapse	-0.1135438
-4.097505	colleague	-0.1135438
-4.097505	colleagues	-0.1135438
-4.097505	collect	-0.1135438
-4.097505	collected	-0.1135438
-4.097505	collection	-0.1135438
-4.097505	collective	-0.1135438
-4.097505	collector	-0.1135438
-4.097505	collide	-0.1135438
-4.097505	collision	-0.1135438
-4.097505	color	-0.1135438
-4.097505	colourful	-0.1135438
-4.097505	colourless	-0.1135438
-4.097505	comb	-0.1135438
-4.097505	combat	-0.1135438
-4.097505	combination	-0.1135438
-2.981043	come	-0.2189377
-3.558741	comes	-0.1448879
-4.097505	comet	-0.1135438
-3.914812	comfortable	-0.1135438
-3.224472	coming	-0.1678839
-3.829278	command	-0.1135438
-3.393309	commander	-0.4743797
-3.829278	commanding	-0.1671158
-4.097505	commant	-0.1135438
-3.914812	commerce	-0.1966027
-3.914812	common	-0.1135438
-4.097505	communism	-0.1135438
-3.673276	companies	-0.1530906
-3.914812	companion	-0.1135438
-3.393309	company	-0.2360891
-4.097505	comparison	-0.1135438
-4.097505	compensate	-0.1135438
-4.097505	compete	-0.1135438
-4.097505	competitive	-0.1135438
-4.097505	compile	-0.1135438
-4.097505	complain	-0.1135438
-4.097505	complained	-0.1135438
-4.097505	complete	-0.1135438
-3.829278	completely	-0.1135438
-4.097505	completion	-0.1135438
-4.097505	complexities	-0.1135438
-4.097505	compliance	-0.1135438
-4.097505	compliment	-0.1135438
-4.097505	complimentary	-0.1135438
-4.097505	compliments	-0.1135438
-4.097505	comprehension	-0.1135438
-3.914812	compromise	-0.1135438
-3.914812	computer	-0.1135438
-4.097505	computers	-0.1135438
-4.097505	concede	-0.1135438
-4.097505	conceived	-0.1135438
-4.097505	concepts	-0.1135438
-3.914812	concern	-0.1966027
-4.097505	concerted	-0.1135438
-4.097505	concerts	-0.1135438
-4.097505	concinna	-0.1135438
-4.097505	conclusion	-0.1135438
-4.097505	conditinuous	-0.1135438
-3.829278	condition	-0.1671158
-4.097505	conditioning	-0.1135438
-3.914812	conditions	-0.1966027
-4.097505	conduct	-0.1135438
-3.914812	conference	-0.1135438
-4.097505	confessed	-0.1135438
-3.914812	confidence	-0.1135438
-4.097505	confined	-0.1135438
-4.097505	confirm	-0.1135438
-4.097505	confirmation	-0.1135438
-4.097505	confirmed	-0.1135438
-4.097505	conflict	-0.1135438
-4.097505	confuess	-0.1135438
-4.097505	connect	-0.1135438
-3.914812	consider	-0.1135438
-4.097505	considerable	-0.1135438
-4.097505	consideration	-0.1135438
-4.097505	considered	-0.1135438
-4.097505	constipate	-0.1135438
-4.097505	construction	-0.1135438
-4.097505	constructive	-0.1135438
-4.097505	consult	-0.1135438
-4.097505	consumer	-0.1135438
-3.829278	contact	-0.1671158
-3.829278	contempt	-0.1671158
-4.097505	contental	-0.1135438
-4.097505	contention	-0.1135438
-4.097505	continuous	-0.1135438
-4.097505	contract	-0.1135438
-4.097505	contradiction	-0.1135438
-3.914812	contrary	-0.1135438
-3.914812	contrast	-0.1135438
-4.097505	contrasted	-0.1135438
-3.673276	control	-0.2313416
-4.097505	convenience	-0.1135438
-4.097505	conversation	-0.1135438
-3.673276	cook	-0.1530906
-4.097505	cooked	-0.1135438
-4.097505	cookie	-0.1135438
-4.097505	cookies	-0.1135438
-4.097505	cooking	-0.1135438
-3.829278	cool	-0.1530906
-4.097505	cooler	-0.1135438
-3.829278	copy	-0.1135438
-4.097505	coral	-0.1135438
-4.097505	coriander	-0.1135438
-4.097505	cormorant	-0.1135438
-3.829278	corner	-0.1135438
-4.097505	cornfield	-0.1135438
-4.097505	corporate	-0.1135438
-4.097505	corporation	-0.1135438
-4.097505	correction	-0.1135438
-4.097505	correctly	-0.1135438
-4.097505	corridor	-0.1135438
-3.673276	cost	-0.1356992
-4.097505	costs	-0.1135438
-4.097505	costus	-0.1135438
-4.097505	coucal	-0.1135438
-4.097505	cough	-0.1135438
-3.224472	could	-0.1395043
-3.829278	couldn	-0.2789672
-4.097505	council	-0.1135438
-3.914812	count	-0.1966027
-4.097505	counter	-0.1135438
-4.097505	counterfeit	-0.1135438
-4.097505	countries	-0.1135438
-3.829278	country	-0.1135438
-4.097505	courage	-0.1135438
-3.558741	course	-0.1769055
-3.673276	court	-0.1884264
-3.468195	cover	-0.2553732
-4.097505	cow	-0.1135438
-3.914812	coward	-0.1135438
-4.097505	cowards	-0.1135438
-4.097505	cowpea	-0.1135438
-4.097505	crab	-0.1135438
-4.097505	cracking	-0.1135438
-4.097505	cramped	-0.1135438
-4.097505	crawl	-0.1135438
-3.914812	crazy	-0.1135438
-3.914812	cream	-0.1448879
-4.097505	creature	-0.1135438
-3.914812	credence	-0.1966027
-3.673276	credit	-0.1530906
-4.097505	cress	-0.1135438
-4.097505	crew	-0.1135438
-4.097505	cricket	-0.1135438
-4.097505	cries	-0.1135438
-4.097505	crisis	-0.1135438
-4.097505	crisp	-0.1135438
-4.097505	criticism	-0.1135438
-4.097505	critisze	-0.1135438
-4.097505	croaker	-0.1135438
-4.097505	crook	-0.1135438
-4.097505	crops	-0.1135438
-3.673276	cross	-0.1448879
-4.097505	crossed	-0.1135438
-4.097505	crosses	-0.1135438
-3.914812	crowd	-0.1966027
-4.097505	crowded	-0.1135438
-4.097505	crowned	-0.1135438
-4.097505	cruel	-0.1135438
-4.097505	cruise	-0.1135438
-4.097505	crunch	-0.1135438
-4.097505	crush	-0.1135438
-3.673276	cry	-0.1448879
-3.673276	crying	-0.1530906
-4.097505	crystal	-0.1135438
-3.914812	cub	-0.1135438
-4.097505	cuckmuach	-0.1135438
-4.097505	cuckoo	-0.1135438
-4.097505	cue	-0.1135438
-4.097505	cultivation	-0.1135438
-4.097505	cunning	-0.1135438
-3.829278	cup	-0.1395043
-3.914812	cups	-0.1135438
-4.097505	curly	-0.1135438
-3.914812	currency	-0.1135438
-4.097505	current	-0.1135438
-3.914812	curry	-0.1135438
-4.097505	curse	-0.1135438
-4.097505	curshed	-0.1135438
-4.097505	curtains	-0.1135438
-4.097505	curve	-0.1135438
-4.097505	curved	-0.1135438
-4.097505	custodial	-0.1135438
-3.829278	customer	-0.1135438
-3.673276	cut	-0.1530906
-4.097505	cute	-0.1135438
-4.097505	cuts	-0.1135438
-3.914812	d	-0.1135438
-4.097505	dace	-0.1135438
-4.097505	dad	-0.1135438
-4.097505	dahila	-0.1135438
-4.097505	daily	-0.1135438
-4.097505	damaged	-0.1135438
-4.097505	dance	-0.1135438
-3.673276	danger	-0.2050871
-3.914812	dangerous	-0.1966027
-4.097505	dangers	-0.1135438
-3.914812	dare	-0.1135438
-4.097505	daren	-0.1135438
-3.829278	dark	-0.1530906
-4.097505	darkest	-0.1135438
-4.097505	data	-0.1135438
-3.393309	date	-0.1620047
-3.914812	dates	-0.1135438
-3.673276	daughter	-0.2050871
-3.914812	dawn	-0.1135438
-3.069297	day	-0.2512225
-4.097505	daybreak	-0.1135438
-3.224472	days	-0.3732001
-3.829278	dead	-0.1671158
-4.097505	deadly	-0.1135438
-4.097505	deaf	-0.1135438
-3.829278	deal	-0.1135438
-4.097505	dearest	-0.1135438
-4.097505	death	-0.1135438
-4.097505	debts	-0.1135438
-3.829278	decide	-0.1135438
-3.829278	decided	-0.1135438
-3.829278	decline	-0.2789672
-4.097505	decrease	-0.1135438
-4.097505	deemed	-0.1135438
-4.097505	deep	-0.1135438
-3.914812	defeat	-0.1966027
-4.097505	defeats	-0.1135438
-4.097505	definition	-0.1135438
-4.097505	defray	-0.1135438
-4.097505	degrees	-0.1135438
-4.097505	delay	-0.1135438
-4.097505	delete	-0.1135438
-3.829278	delicious	-0.1530906
-4.097505	delight	-0.1135438
-4.097505	delivered	-0.1135438
-3.829278	delivery	-0.1671158
-4.097505	delusions	-0.1135438
-3.673276	demand	-0.1530906
-3.914812	demands	-0.1135438
-4.097505	den	-0.1135438
-4.097505	denies	-0.1135438
-4.097505	dent	-0.1135438
-4.097505	dentist	-0.1135438
-4.097505	deny	-0.1135438
-4.097505	denying	-0.1135438
-4.097505	departing	-0.1135438
-3.914812	department	-0.1135438
-4.097505	departs	-0.1135438
-4.097505	departure	-0.1135438
-4.097505	dependent	-0.1135438
-4.097505	depending	-0.1135438
-4.097505	depletion	-0.1135438
-4.097505	deposit	-0.1135438
-4.097505	depths	-0.1135438
-4.097505	dereliction	-0.1135438
-4.097505	described	-0.1135438
-4.097505	description	-0.1135438
-3.914812	desert	-0.1135438
-4.097505	deserve	-0.1135438
-4.097505	desired	-0.1135438
-3.829278	desk	-0.2050871
-3.558741	destination	-0.1395043
-4.097505	destiny	-0.1135438
-4.097505	destroyed	-0.1135438
-4.097505	destructive	-0.1135438
-4.097505	detail	-0.1135438
-4.097505	detrimental	-0.1135438
-4.097505	develop	-0.1135438
-4.097505	developed	-0.1135438
-4.097505	diametrically	-0.1135438
-4.097505	diasppeared	-0.1135438
-3.069297	did	-0.2578563
-3.673276	didn	-0.403906
-4.097505	didn`t	-0.1135438
-3.829278	die	-0.1135438
-3.829278	died	-0.1135438
-4.097505	diet	-0.1135438
-4.097505	differences	-0.1135438
-3.673276	different	-0.2313416
-3.468195	difficult	-0.1590461
-3.914812	difficulties	-0.1135438
-4.097505	dig	-0.1135438
-4.097505	dilicious	-0.1135438
-4.097505	dim	-0.1135438
-3.558741	dinner	-0.1448879
-4.097505	dire	-0.1135438
-3.558741	direction	-0.500816
-3.914812	directions	-0.1966027
-4.097505	director	-0.1135438
-3.673276	dirty	-0.2050871
-4.097505	disappear	-0.1135438
-4.097505	disasters	-0.1135438
-4.097505	disccussed	-0.1135438
-3.914812	discuss	-0.1135438
-4.097505	discussion	-0.1135438
-4.097505	disgraceful	-0.1135438
-4.097505	dish	-0.1135438
-4.097505	dishes	-0.1135438
-4.097505	disinherit	-0.1135438
-4.097505	dispatched	-0.1135438
-4.097505	disposes	-0.1135438
-4.097505	disturbed	-0.1135438
-4.097505	disture	-0.1135438
-4.097505	dive	-0.1135438
-4.097505	division	-0.1135438
-4.097505	dizzy	-0.1135438
-2.51861	do	-0.43813
-3.673276	doctor	-0.1395043
-2.955206	does	-0.3518876
-3.329457	doesn	-0.704936
-3.468195	dog	-0.2345076
-4.097505	dogs	-0.1135438
-3.558741	doing	-0.2050872
-3.914812	doll	-0.1135438
-3.914812	dollar	-0.1135438
-3.139991	dollars	-0.2542126
-4.097505	dollor	-0.1135438
-4.097505	dolls	-0.1135438
-4.097505	dolphin	-0.1135438
-4.097505	domestic	-0.1135438
-3.2738	don	-0.7560885
-3.468195	done	-0.1395043
-3.829278	door	-0.1448879
-4.097505	dots	-0.1135438
-4.097505	double	-0.1135438
-3.914812	doubt	-0.1135438
-4.097505	dough	-0.1135438
-3.103207	down	-0.2345076
-4.097505	downs	-0.1135438
-4.097505	downtown	-0.1135438
-4.097505	dragonfly	-0.1135438
-4.097505	drama	-0.1135438
-3.914812	draw	-0.1135438
-3.829278	drawer	-0.1671158
-3.914812	drawing	-0.1966027
-4.097505	dream	-0.1135438
-3.673276	dress	-0.1135438
-4.097505	drew	-0.1135438
-3.468195	drink	-0.1356993
-4.097505	drinkable	-0.1135438
-3.914812	drinking	-0.1135438
-4.097505	drinks	-0.1135438
-3.829278	drive	-0.1135438
-3.829278	driver	-0.1135438
-3.673276	driving	-0.1135438
-4.097505	drop	-0.1135438
-4.097505	dropped	-0.1135438
-4.097505	drowning	-0.1135438
-4.097505	drum	-0.1135438
-4.097505	drunk	-0.1135438
-4.097505	dry	-0.1135438
-3.914812	duck	-0.1135438
-3.914812	ducks	-0.1135438
-4.097505	due	-0.1135438
-4.097505	dug	-0.1135438
-4.097505	dugong	-0.1135438
-4.097505	dumb	-0.1135438
-4.097505	dumpling	-0.1135438
-4.097505	dune	-0.1135438
-4.097505	durian	-0.1135438
-3.914812	duster	-0.1135438
-4.097505	dutiful	-0.1135438
-3.914812	duty	-0.1135438
-3.914812	dwarf	-0.1966027
-4.097505	dye	-0.1135438
-3.829278	e	-0.1135438
-3.673276	each	-0.1530907
-4.097505	eager	-0.1135438
-3.673276	eagle	-0.1356993
-4.097505	eagles	-0.1135438
-4.097505	ealing	-0.1135438
-3.914812	ear	-0.1530907
-3.468195	early	-0.4074329
-4.097505	earrings	-0.1135438
-4.097505	ease	-0.1135438
-4.097505	east	-0.1135438
-3.914812	easy	-0.1135438
-3.18018	eat	-0.1682483
-4.097505	eaten	-0.1135438
-3.914812	eating	-0.1135438
-4.097505	eats	-0.1135438
-4.097505	ecological	-0.1135438
-3.673276	economic	-0.1135438
-3.914812	economics	-0.1135438
-3.914812	economy	-0.1966027
-3.829278	edge	-0.1671158
-4.097505	education	-0.1135438
-4.097505	educational	-0.1135438
-4.097505	educative	-0.1135438
-3.829278	eel	-0.2789672
-3.829278	effect	-0.1671158
-4.097505	effective	-0.1135438
-3.914812	efforts	-0.1135438
-3.673276	egg	-0.2050871
-3.829278	eggs	-0.1135438
-4.097505	egret	-0.1135438
-3.468195	eight	-0.1485144
-4.097505	eighteen	-0.1135438
-4.097505	eighty	-0.1135438
-3.914812	either	-0.1135438
-4.097505	elected	-0.1135438
-3.914812	election	-0.1135438
-4.097505	elevator	-0.1135438
-3.829278	eleven	-0.1135438
-3.673276	else	-0.1135438
-3.914812	email	-0.1671158
-4.097505	emergency	-0.1135438
-3.914812	employed	-0.1135438
-3.914812	empty	-0.1530906
-4.097505	enactment	-0.1135438
-4.097505	encouraged	-0.1135438
-3.829278	end	-0.1530906
-4.097505	enduring	-0.1135438
-3.914812	enemy	-0.1135438
-4.097505	engage	-0.1135438
-4.097505	engaged	-0.1135438
-4.097505	engagement	-0.1135438
-3.829278	engineer	-0.1135438
-4.097505	engineers	-0.1135438
-3.914812	enjoy	-0.1135438
-4.097505	enjoying	-0.1135438
-4.097505	enjoys	-0.1135438
-3.468195	enough	-0.1395043
-3.914812	enquired	-0.1135438
-3.914812	enter	-0.1135438
-4.097505	entered	-0.1135438
-4.097505	entering	-0.1135438
-4.097505	entertain	-0.1135438
-4.097505	entertaining	-0.1135438
-4.097505	entrepreneurs	-0.1135438
-3.914812	envy	-0.1135438
-4.097505	erarly	-0.1135438
-4.097505	erase	-0.1135438
-4.097505	erected	-0.1135438
-4.097505	escape	-0.1135438
-4.097505	escaped	-0.1135438
-4.097505	estimate	-0.1135438
-4.097505	eugenia	-0.1135438
-4.097505	eurasian	-0.1135438
-3.829278	even	-0.1135438
-3.558741	evening	-0.2553732
-4.097505	evenings	-0.1135438
-3.329457	ever	-0.1135438
-3.329457	every	-0.1135438
-3.914812	everybody	-0.1135438
-3.829278	everyday	-0.1135438
-3.914812	everyone	-0.1135438
-3.468195	everything	-0.1328672
-4.097505	everywhere	-0.1135438
-3.673276	evidence	-0.1448879
-4.097505	exactly	-0.1135438
-4.097505	exam	-0.1135438
-4.097505	examined	-0.1135438
-4.097505	example	-0.1135438
-3.914812	exams	-0.1966027
-4.097505	excavata	-0.1135438
-4.097505	excellent	-0.1135438
-3.558741	exchange	-0.1769054
-4.097505	exchanged	-0.1135438
-3.914812	excuse	-0.1135438
-3.914812	exercise	-0.1135438
-4.097505	expansion	-0.1135438
-4.097505	expansive	-0.1135438
-4.097505	expect	-0.1135438
-4.097505	expectations	-0.1135438
-4.097505	expected	-0.1135438
-4.097505	expenses	-0.1135438
-3.558741	expensive	-0.3282516
-4.097505	experience	-0.1135438
-4.097505	expert	-0.1135438
-4.097505	expire	-0.1135438
-4.097505	expiry	-0.1135438
-4.097505	explain	-0.1135438
-3.914812	explained	-0.1135438
-4.097505	explaining	-0.1135438
-4.097505	explore	-0.1135438
-3.829278	express	-0.2789672
-4.097505	extended	-0.1135438
-4.097505	extensive	-0.1135438
-4.097505	extraordinary	-0.1135438
-4.097505	extravagant	-0.1135438
-4.097505	extremely	-0.1135438
-3.829278	eye	-0.1135438
-4.097505	eyed	-0.1135438
-3.829278	eyelid	-0.2789672
-3.914812	eyes	-0.1135438
-3.829278	f	-0.1671158
-3.829278	face	-0.1135438
-4.097505	facilities	-0.1135438
-3.914812	fact	-0.1135438
-4.097505	facts	-0.1135438
-4.097505	fail	-0.1135438
-4.097505	failed	-0.1135438
-3.914812	failure	-0.1966027
-4.097505	faint	-0.1135438
-4.097505	fainting	-0.1135438
-4.097505	fair	-0.1135438
-4.097505	faithful	-0.1135438
-4.097505	fake	-0.1135438
-4.097505	falcon	-0.1135438
-3.914812	fall	-0.1135438
-4.097505	fallen	-0.1135438
-3.914812	falling	-0.1135438
-4.097505	falls	-0.1135438
-4.097505	familiar	-0.1135438
-3.393309	family	-0.1135438
-4.097505	famine	-0.1135438
-3.829278	famous	-0.1671158
-4.097505	fan	-0.1135438
-4.097505	fancy	-0.1135438
-3.329457	far	-0.1904561
-4.097505	farm	-0.1135438
-3.914812	farmer	-0.1671158
-4.097505	farmhouse	-0.1135438
-4.097505	fasten	-0.1135438
-4.097505	fastly	-0.1135438
-3.829278	fat	-0.2789672
-3.393309	father	-0.1740333
-3.914812	fault	-0.1966027
-4.097505	favor	-0.1135438
-4.097505	favorite	-0.1135438
-4.097505	favour	-0.1135438
-4.097505	favours	-0.1135438
-3.914812	fax	-0.1135438
-4.097505	fay	-0.1135438
-3.914812	fear	-0.1135438
-4.097505	fearless	-0.1135438
-4.097505	feather	-0.1135438
-4.097505	featherback	-0.1135438
-4.097505	fee	-0.1135438
-3.914812	feed	-0.1135438
-3.558741	feel	-0.1135438
-3.914812	feeling	-0.1135438
-4.097505	feels	-0.1135438
-4.097505	fees	-0.1135438
-4.097505	feet	-0.1135438
-3.673276	fell	-0.2313416
-4.097505	felt	-0.1135438
-4.097505	female	-0.1135438
-4.097505	fertile	-0.1135438
-4.097505	feverish	-0.1135438
-4.097505	few	-0.1135438
-3.558741	field	-0.3282516
-4.097505	fierce	-0.1135438
-3.914812	fifteen	-0.1135438
-3.914812	fifth	-0.1966027
-3.914812	fifty	-0.1135438
-4.097505	fighter	-0.1135438
-4.097505	figure	-0.1135438
-4.097505	figures	-0.1135438
-3.829278	fill	-0.1135438
-4.097505	film	-0.1135438
-4.097505	filter	-0.1135438
-4.097505	final	-0.1135438
-3.673276	finally	-0.1135438
-4.097505	finances	-0.1135438
-3.393309	find	-0.1723813
-3.829278	finding	-0.1671158
-3.468195	fine	-0.3117905
-3.914812	finger	-0.1135438
-3.914812	fingers	-0.1135438
-3.914812	finish	-0.1966027
-4.097505	finished	-0.1135438
-4.097505	finned	-0.1135438
-3.829278	fire	-0.1530906
-3.914812	fired	-0.1135438
-4.097505	firm	-0.1135438
-3.468195	first	-0.1135438
-3.069297	fish	-0.4118822
-4.097505	fishermaen	-0.1135438
-4.097505	fisherman	-0.1135438
-3.829278	fit	-0.1671158
-3.2738	five	-0.1502995
-4.097505	fix	-0.1135438
-4.097505	fixed	-0.1135438
-3.914812	flat	-0.1135438
-4.097505	flattered	-0.1135438
-4.097505	flexibility	-0.1135438
-4.097505	flexible	-0.1135438
-4.097505	flies	-0.1135438
-3.329457	flight	-0.2056482
-4.097505	flirt	-0.1135438
-4.097505	float	-0.1135438
-4.097505	floods	-0.1135438
-3.673276	flower	-0.2842684
-3.673276	flowers	-0.1395043
-4.097505	flown	-0.1135438
-3.329457	fly	-0.1960252
-4.097505	flying	-0.1135438
-4.097505	fold	-0.1135438
-4.097505	follow	-0.1135438
-3.2738	food	-0.2036615
-4.097505	foolish	-0.1135438
-3.914812	foot	-0.1135438
-3.914812	football	-0.1135438
-2.162942	for	-0.3376577
-4.097505	forbid	-0.1135438
-3.914812	force	-0.1135438
-4.097505	forced	-0.1135438
-3.914812	forehead	-0.1135438
-3.914812	foreign	-0.1135438
-3.914812	forest	-0.1135438
-4.097505	forged	-0.1135438
-3.829278	forget	-0.1530906
-4.097505	forgot	-0.1135438
-4.097505	form	-0.1135438
-4.097505	forth	-0.1135438
-3.914812	forty	-0.1671158
-4.097505	forward	-0.1135438
-3.329457	found	-0.1448879
-3.393309	four	-0.1306772
-4.097505	fourr	-0.1135438
-3.829278	fourteen	-0.1135438
-4.097505	fowl	-0.1135438
-3.673276	fox	-0.1263301
-3.914812	foxes	-0.1135438
-3.558741	free	-0.1135438
-4.097505	freeze	-0.1135438
-4.097505	fresh	-0.1135438
-4.097505	fried	-0.1135438
-3.558741	friend	-0.1723597
-3.914812	friendly	-0.1966027
-3.829278	friends	-0.1135437
-4.097505	frighten	-0.1135438
-4.097505	fritters	-0.1135438
-3.673276	frog	-0.1356993
-2.621729	from	-0.2022077
-3.914812	front	-0.1135438
-3.673276	fruit	-0.1530906
-4.097505	fry	-0.1135438
-4.097505	fu	-0.1135438
-3.558741	full	-0.1448879
-3.914812	fully	-0.1135438
-4.097505	function	-0.1135438
-4.097505	fund	-0.1135438
-3.914812	funds	-0.1135438
-4.097505	funny	-0.1135438
-4.097505	furious	-0.1135438
-4.097505	furrow	-0.1135438
-3.914812	further	-0.1135438
-3.829278	g	-0.1135438
-4.097505	gain	-0.1135438
-3.829278	gained	-0.1135438
-4.097505	gaint	-0.1135438
-4.097505	galingal	-0.1135438
-3.914812	game	-0.1135438
-4.097505	games	-0.1135438
-4.097505	gang	-0.1135438
-4.097505	garden	-0.1135438
-4.097505	garfish	-0.1135438
-3.673276	gas	-0.2313416
-4.097505	gasoline	-0.1135438
-4.097505	gate	-0.1135438
-4.097505	gaur	-0.1135438
-3.329457	gave	-0.1289331
-3.829278	general	-0.1671158
-4.097505	gentle	-0.1135438
-4.097505	geological	-0.1135438
-2.981043	get	-0.2483552
-3.914812	gets	-0.1135438
-3.829278	getting	-0.1135438
-4.097505	ghost	-0.1135438
-4.097505	giant	-0.1135438
-4.097505	gibbon	-0.1135438
-4.097505	gift	-0.1135438
-4.097505	ginger	-0.1135438
-3.558741	girl	-0.2026461
-3.914812	girlfriend	-0.1530906
-3.673276	girls	-0.1530906
-4.097505	girl	-0.1135438
-3.18018	give	-0.2478153
-3.829278	given	-0.1671158
-4.097505	gives	-0.1135438
-3.914812	giving	-0.1135438
-3.673276	glad	-0.1966027
-3.829278	glass	-0.1448879
-3.558741	glasses	-0.1448879
-4.097505	glauca	-0.1135438
-4.097505	glitters	-0.1135438
-4.097505	globalization	-0.1135438
-4.097505	globe	-0.1135438
-4.097505	glutinous	-0.1135438
-2.93082	go	-0.3019581
-3.829278	goat	-0.1135438
-4.097505	goby	-0.1135438
-3.829278	goes	-0.2789672
-3.069297	going	-0.3090185
-3.673276	gold	-0.1135438
-3.914812	golden	-0.1135438
-3.558741	gone	-0.1135438
-2.757216	good	-0.2500347
-3.829278	goods	-0.1135438
-3.914812	goose	-0.1135438
-4.097505	gossip	-0.1135438
-3.329457	got	-0.1419431
-3.829278	gourd	-0.2313416
-3.829278	government	-0.1135438
-4.097505	graceful	-0.1135438
-4.097505	graces	-0.1135438
-4.097505	grackle	-0.1135438
-3.829278	graduate	-0.1135438
-4.097505	grandeur	-0.1135438
-4.097505	grandfather	-0.1135438
-4.097505	grandmother	-0.1135438
-4.097505	granted	-0.1135438
-3.914812	grass	-0.1135438
-4.097505	grasshopper	-0.1135438
-4.097505	gravy	-0.1135438
-3.2738	great	-0.1980389
-4.097505	greatness	-0.1135438
-3.393309	green	-0.2348974
-4.097505	grew	-0.1135438
-4.097505	grind	-0.1135438
-4.097505	gross	-0.1135438
-3.914812	ground	-0.1966027
-3.829278	group	-0.1671158
-4.097505	grow	-0.1135438
-3.914812	growth	-0.1966027
-4.097505	grudge	-0.1135438
-4.097505	guarantee	-0.1135438
-3.914812	guard	-0.1966027
-4.097505	gudgeon	-0.1135438
-4.097505	guess	-0.1135438
-3.914812	guide	-0.1530906
-3.829278	guilty	-0.1671158
-4.097505	gum	-0.1135438
-3.914812	gun	-0.1966027
-4.097505	guns	-0.1135438
-4.097505	gusts	-0.1135438
-3.914812	h	-0.1135438
-3.914812	habit	-0.1966027
-2.845025	had	-0.2327504
-3.393309	hair	-0.260638
-3.558741	half	-0.1135438
-4.097505	hall	-0.1135438
-4.097505	halt	-0.1135438
-4.097505	halves	-0.1135438
-4.097505	hamburger	-0.1135438
-3.468195	hand	-0.3645177
-4.097505	handkerchief	-0.1135438
-4.097505	hands	-0.1135438
-3.829278	handsome	-0.1135438
-4.097505	hang	-0.1135438
-4.097505	hangs	-0.1135438
-3.914812	happen	-0.1966027
-3.914812	happened	-0.1135438
-4.097505	happens	-0.1135438
-3.393309	happy	-0.2313416
-4.097505	harbour	-0.1135438
-3.673276	hard	-0.1530906
-4.097505	hardworking	-0.1135438
-4.097505	harmful	-0.1135438
-2.93082	has	-0.179452
-4.097505	haste	-0.1135438
-3.914812	hat	-0.1135438
-3.673276	hate	-0.1135438
-2.726526	have	-0.2350159
-3.829278	haven	-0.2789672
-3.393309	having	-0.1135438
-4.097505	hay	-0.1135438
-2.567116	he	-0.2093602
-3.829278	head	-0.1135438
-4.097505	headache	-0.1135438
-4.097505	headed	-0.1135438
-4.097505	headquarter	-0.1135438
-4.097505	health	-0.1135438
-3.673276	hear	-0.1590461
-3.558741	heard	-0.1395043
-3.914812	heart	-0.1135438
-3.673276	heat	-0.1135438
-3.914812	heavy	-0.1135438
-3.914812	heel	-0.1671158
-3.914812	held	-0.1135438
-3.914812	hello	-0.1135438
-4.097505	helmet	-0.1135438
-2.907731	help	-0.2734193
-4.097505	helpful	-0.1135438
-4.097505	helpless	-0.1135438
-3.829278	hen	-0.1135438
-2.726526	her	-0.1561117
-2.588144	here	-0.5588863
-4.097505	heritages	-0.1135438
-3.829278	heron	-0.2789672
-3.829278	herself	-0.1671158
-4.097505	hiccough	-0.1135438
-4.097505	hidden	-0.1135438
-4.097505	hide	-0.1135438
-4.097505	hiding	-0.1135438
-3.393309	high	-0.1530906
-4.097505	hijack	-0.1135438
-4.097505	hiking	-0.1135438
-3.914812	hill	-0.1135438
-4.097505	hilsa	-0.1135438
-2.527888	him	-0.2925132
-3.468195	himself	-0.1884264
-4.097505	hint	-0.1135438
-3.914812	hire	-0.1135438
-4.097505	hiring	-0.1135438
-2.588144	his	-0.1549042
-4.097505	historic	-0.1135438
-3.829278	historical	-0.1671158
-4.097505	hoarse	-0.1135438
-4.097505	hobbies	-0.1135438
-3.914812	hobby	-0.1135438
-4.097505	hockey	-0.1135438
-3.468195	hold	-0.1135438
-4.097505	holds	-0.1135438
-4.097505	hole	-0.1135438
-3.914812	holiday	-0.1135438
-4.097505	hollyhock	-0.1135438
-3.18018	home	-0.2217537
-3.914812	homeless	-0.1966027
-3.914812	homework	-0.1135438
-3.914812	honest	-0.1135438
-3.914812	honour	-0.1135438
-3.829278	hope	-0.1135438
-4.097505	hopeful	-0.1135438
-4.097505	hopeless	-0.1135438
-4.097505	horizonal	-0.1135438
-4.097505	horns	-0.1135438
-4.097505	horror	-0.1135438
-3.914812	horse	-0.1135438
-3.914812	horses	-0.1135438
-4.097505	hospitable	-0.1135438
-3.914812	hospital	-0.1966027
-4.097505	hospitality	-0.1135438
-4.097505	hostages	-0.1135438
-4.097505	hostess	-0.1135438
-3.329457	hot	-0.215338
-3.829278	hotel	-0.1356993
-3.829278	hour	-0.1530906
-3.224472	hours	-0.3732001
-4.097505	hourse	-0.1135438
-3.393309	house	-0.1677483
-4.097505	houses	-0.1135438
-4.097505	housewife	-0.1135438
-4.097505	housework	-0.1135438
-3.069297	how	-0.2111085
-4.097505	however	-0.1135438
-4.097505	huge	-0.1135438
-3.914812	human	-0.1135438
-4.097505	humble	-0.1135438
-3.829278	hundred	-0.1135438
-3.558741	hungry	-0.2050871
-4.097505	hunter	-0.1135438
-4.097505	hurriedly	-0.1135438
-3.558741	hurry	-0.2863973
-3.914812	hurt	-0.1135438
-3.673276	hurts	-0.3282516
-4.097505	hurts.When	-0.1135438
-3.914812	husband	-0.1671158
-4.097505	hut	-0.1135438
-3.829278	ice	-0.2050871
-3.914812	idea	-0.1530907
-3.829278	ideas	-0.1135438
-3.914812	idle	-0.1966027
-2.711958	if	-0.4355346
-4.097505	iff	-0.1135438
-4.097505	ifs	-0.1135438
-3.673276	ill	-0.1530906
-4.097505	illegal	-0.1135438
-4.097505	imitate	-0.1135438
-4.097505	immature	-0.1135438
-4.097505	implored	-0.1135438
-4.097505	importance	-0.1135438
-3.673276	important	-0.3282516
-4.097505	imposed	-0.1135438
-4.097505	impressed	-0.1135438
-4.097505	imprison	-0.1135438
-4.097505	improved	-0.1135438
-2.019498	in	-0.3215822
-4.097505	inChief	-0.1135438
-4.097505	including	-0.1135438
-4.097505	income	-0.1135438
-3.914812	increase	-0.1135438
-4.097505	increasing	-0.1135438
-4.097505	increasingdemands	-0.1135438
-4.097505	increasingly	-0.1135438
-4.097505	indeed	-0.1135438
-4.097505	independent	-0.1135438
-4.097505	indian	-0.1135438
-4.097505	indicate	-0.1135438
-4.097505	indoors	-0.1135438
-4.097505	industialized	-0.1135438
-4.097505	industry	-0.1135438
-3.829278	infantry	-0.1671158
-3.914812	inform	-0.1135438
-3.673276	information	-0.1135438
-4.097505	informing	-0.1135438
-4.097505	inherit	-0.1135438
-3.829278	innocent	-0.1671158
-4.097505	inquire	-0.1135438
-3.914812	inside	-0.1135438
-4.097505	inspection	-0.1135438
-4.097505	inspired	-0.1135438
-4.097505	intend	-0.1135438
-3.914812	intended	-0.1135438
-4.097505	inter	-0.1135438
-3.914812	interest	-0.1135438
-4.097505	interested	-0.1135438
-3.558741	interesting	-0.1448879
-4.097505	intersection	-0.1135438
-3.914812	interview	-0.1135438
-2.981043	into	-0.2172568
-4.097505	introduce	-0.1135438
-4.097505	introductory	-0.1135438
-4.097505	inventive	-0.1135438
-4.097505	invest	-0.1135438
-4.097505	investigative	-0.1135438
-4.097505	invitation	-0.1135438
-4.097505	invite	-0.1135438
-4.097505	iora	-0.1135438
-4.097505	ipomea	-0.1135438
-4.097505	iron	-0.1135438
-2.028312	is	-0.2911417
-3.673276	isn	-0.403906
-4.097505	issue	-0.1135438
-4.097505	issued	-0.1135438
-2.359089	it	-0.3045189
-4.097505	itch	-0.1135438
-3.914812	its	-0.1135438
-3.914812	itself	-0.1966027
-3.914812	jacket	-0.1135438
-4.097505	jail	-0.1135438
-4.097505	jailed	-0.1135438
-3.914812	jam	-0.1966027
-3.829278	jar	-0.1135438
-3.673276	jasmine	-0.403906
-4.097505	jealousy	-0.1135438
-4.097505	jeans	-0.1135438
-4.097505	jelly	-0.1135438
-3.558741	job	-0.2553732
-4.097505	jobs	-0.1135438
-3.829278	join	-0.1135437
-4.097505	joined	-0.1135438
-3.914812	joint	-0.1135438
-3.914812	joke	-0.1135438
-4.097505	jokingly	-0.1135438
-4.097505	journey	-0.1135438
-4.097505	joy	-0.1135438
-3.829278	judge	-0.1135438
-3.914812	juice	-0.1135438
-4.097505	jump	-0.1135438
-3.829278	jumped	-0.1671158
-4.097505	jumping	-0.1135438
-3.2738	just	-0.123098
-4.097505	justice	-0.1135438
-4.097505	k	-0.1135438
-3.914812	keep	-0.1135438
-4.097505	keeper	-0.1135438
-3.914812	keeps	-0.1135438
-3.673276	kept	-0.1448879
-3.914812	kettle	-0.1135438
-4.097505	key	-0.1135438
-4.097505	keys	-0.1135438
-3.914812	kidding	-0.1135438
-4.097505	kids	-0.1135438
-4.097505	kill	-0.1135438
-3.914812	killed	-0.1135438
-4.097505	kilometers	-0.1135438
-3.673276	kind	-0.1395043
-3.914812	king	-0.1966027
-4.097505	kingcrab	-0.1135438
-4.097505	kino	-0.1135438
-3.914812	kiss	-0.1135438
-4.097505	kitchen	-0.1135438
-3.914812	kite	-0.1671158
-3.914812	knee	-0.1448879
-4.097505	knew	-0.1135438
-4.097505	knickers	-0.1135438
-3.914812	knife	-0.1135438
-4.097505	knives	-0.1135438
-3.224472	know	-0.2146922
-4.097505	knowable	-0.1135438
-4.097505	known	-0.1135438
-3.914812	knows	-0.1135438
-4.097505	kyats	-0.1135438
-3.829278	l	-0.1671158
-4.097505	lablab	-0.1135438
-4.097505	laburnum	-0.1135438
-4.097505	lack	-0.1135438
-4.097505	lacks	-0.1135438
-4.097505	lady	-0.1135438
-4.097505	ladybird	-0.1135438
-3.468195	lake	-0.2842684
-3.914812	lamb	-0.1135438
-4.097505	lame	-0.1135438
-4.097505	lamp	-0.1135438
-4.097505	land	-0.1135438
-3.829278	landscape	-0.1135438
-3.914812	lane	-0.1135438
-3.914812	language	-0.1135438
-3.914812	languages	-0.1135438
-3.914812	large	-0.1135438
-4.097505	lark	-0.1135438
-4.097505	lashed	-0.1135438
-3.224472	last	-0.1356992
-4.097505	lasted	-0.1135438
-3.18018	late	-0.3200733
-3.468195	later	-0.2269636
-4.097505	latest	-0.1135438
-3.829278	laugh	-0.1135438
-3.829278	laughing	-0.1671158
-4.097505	laughter	-0.1135438
-4.097505	laurel	-0.1135438
-3.914812	law	-0.1135438
-3.829278	laws	-0.1671158
-3.673276	lawyer	-0.2313416
-4.097505	lax	-0.1135438
-4.097505	lay	-0.1135438
-4.097505	layer	-0.1135438
-4.097505	lazy	-0.1135438
-4.097505	lead	-0.1135438
-3.914812	leader	-0.1135438
-4.097505	leaf	-0.1135438
-4.097505	leaffish	-0.1135438
-4.097505	leak	-0.1135438
-4.097505	lean	-0.1135438
-3.673276	learn	-0.1135438
-3.914812	learning	-0.1135438
-4.097505	learnt	-0.1135438
-3.914812	least	-0.1135438
-2.907731	leave	-0.2532398
-4.097505	leaved	-0.1135438
-3.558741	leaves	-0.1395043
-3.468195	leaving	-0.1135438
-3.829278	led	-0.1135438
-3.914812	leek	-0.1966027
-3.139991	left	-0.1528642
-3.829278	leg	-0.1671158
-4.097505	legs	-0.1135438
-4.097505	leisture	-0.1135438
-4.097505	lemon	-0.1135438
-3.829278	lend	-0.1135438
-4.097505	lentil	-0.1135438
-4.097505	less	-0.1135438
-3.914812	lesson	-0.1135438
-3.393309	let	-0.181206
-3.829278	letter	-0.1448879
-4.097505	lettuce	-0.1135438
-3.914812	library	-0.1966027
-3.829278	license	-0.2313416
-3.829278	lie	-0.1530906
-3.558741	life	-0.1786714
-4.097505	lifeless	-0.1135438
-4.097505	lifestyle	-0.1135438
-3.829278	light	-0.1135438
-2.773415	like	-0.2393924
-4.097505	liked	-0.1135438
-3.829278	likes	-0.1135438
-3.914812	lily	-0.1966027
-4.097505	lima	-0.1135438
-4.097505	limber	-0.1135438
-4.097505	lime	-0.1135438
-3.673276	line	-0.1530906
-4.097505	liner	-0.1135438
-4.097505	lion	-0.1135438
-3.914812	list	-0.1966027
-3.829278	listen	-0.1671158
-4.097505	listened	-0.1135438
-3.914812	listening	-0.1966027
-4.097505	listens	-0.1135438
-4.097505	lit	-0.1135438
-3.468195	little	-0.125333
-3.329457	live	-0.1776404
-3.914812	lived	-0.1135438
-4.097505	lively	-0.1135438
-3.914812	lives	-0.1135438
-4.097505	living	-0.1135438
-4.097505	loach	-0.1135438
-4.097505	load	-0.1135438
-4.097505	lobe	-0.1135438
-4.097505	lobster	-0.1135438
-3.914812	local	-0.1135438
-4.097505	location	-0.1135438
-4.097505	lock	-0.1135438
-4.097505	locked	-0.1135438
-4.097505	locomotive	-0.1135438
-4.097505	logic	-0.1135438
-4.097505	lonely	-0.1135438
-4.097505	loney	-0.1135438
-3.2738	long	-0.1370986
-3.829278	longer	-0.1135438
-3.18018	look	-0.2857575
-3.914812	looked	-0.1135438
-3.468195	looking	-0.1884264
-3.673276	looks	-0.1135438
-4.097505	loose	-0.1135438
-4.097505	lorry	-0.1135438
-4.097505	lose	-0.1135438
-3.2738	lost	-0.1569079
-4.097505	lot	-0.1135438
-3.829278	lotus	-0.2789672
-3.914812	loud	-0.1135438
-4.097505	loudly	-0.1135438
-3.393309	love	-0.1135438
-4.097505	loveless	-0.1135438
-4.097505	lovely	-0.1135438
-4.097505	low	-0.1135438
-4.097505	lowest	-0.1135438
-3.914812	luck	-0.1135438
-3.914812	lucky	-0.1135438
-4.097505	luggage	-0.1135438
-3.673276	lunch	-0.1448879
-3.829278	lying	-0.1135438
-4.097505	m	-0.1135438
-4.097505	machine	-0.1135438
-4.097505	mackerel	-0.1135438
-4.097505	mad	-0.1135438
-3.2738	made	-0.1440701
-4.097505	magistrate	-0.1135438
-4.097505	magnolia	-0.1135438
-3.224472	mail	-0.2217537
-4.097505	mailing	-0.1135438
-3.829278	main	-0.1135438
-4.097505	maintaining	-0.1135438
-4.097505	major	-0.1135438
-3.2738	make	-0.1741038
-3.829278	makes	-0.1135438
-3.558741	making	-0.1884264
-3.18018	man	-0.1485965
-4.097505	manage	-0.1135438
-4.097505	managed	-0.1135438
-3.914812	management	-0.1135438
-3.914812	manager	-0.1530906
-4.097505	managers	-0.1135438
-4.097505	mango	-0.1135438
-4.097505	mangofish	-0.1135438
-4.097505	manly	-0.1135438
-4.097505	manner	-0.1135438
-4.097505	manners	-0.1135438
-4.097505	mantis	-0.1135438
-3.224472	many	-0.1266358
-4.097505	map	-0.1135438
-4.097505	maps	-0.1135438
-4.097505	mar	-0.1135438
-4.097505	marched	-0.1135438
-4.097505	marching	-0.1135438
-4.097505	marian	-0.1135438
-4.097505	marigold	-0.1135438
-4.097505	mark	-0.1135438
-4.097505	marked	-0.1135438
-3.829278	market	-0.1135438
-3.393309	married	-0.260638
-4.097505	marrow	-0.1135438
-3.829278	marry	-0.1395043
-4.097505	marvellous	-0.1135438
-4.097505	massage	-0.1135438
-3.829278	master	-0.1135438
-4.097505	masters	-0.1135438
-4.097505	mat	-0.1135438
-3.914812	match	-0.1135438
-4.097505	matches	-0.1135438
-4.097505	math	-0.1135438
-4.097505	mathematical	-0.1135438
-3.558741	matter	-0.1671158
-3.558741	may	-0.1448879
-2.435339	me	-0.2846202
-3.914812	mean	-0.1966027
-3.829278	means	-0.1135438
-4.097505	meant	-0.1135438
-4.097505	measure	-0.1135438
-3.829278	measures	-0.1135438
-4.097505	meat	-0.1135438
-4.097505	mechanic	-0.1135438
-4.097505	medals	-0.1135438
-4.097505	mediate	-0.1135438
-3.558741	medicine	-0.1395043
-3.558741	meet	-0.1680937
-3.673276	meeting	-0.1356993
-4.097505	melt	-0.1135438
-3.673276	men	-0.1530906
-4.097505	mend	-0.1135438
-4.097505	mental	-0.1135438
-4.097505	mentally	-0.1135438
-4.097505	mentary	-0.1135438
-4.097505	menu	-0.1135438
-3.914812	merchant	-0.1966027
-4.097505	mess	-0.1135438
-3.829278	message	-0.159046
-3.558741	met	-0.1395043
-4.097505	methods	-0.1135438
-4.097505	mid	-0.1135438
-4.097505	midnight	-0.1135438
-3.558741	might	-0.1135438
-4.097505	mighty	-0.1135438
-3.673276	miles	-0.2313416
-3.558741	milk	-0.1448879
-3.2738	mind	-0.2491549
-3.914812	mine	-0.1966027
-4.097505	minimum	-0.1135438
-4.097505	minority	-0.1135438
-4.097505	minute	-0.1135438
-3.18018	minutes	-0.3519276
-3.914812	mirror	-0.1135438
-3.914812	miss	-0.1135438
-4.097505	missble	-0.1135438
-4.097505	missile	-0.1135438
-4.097505	missing	-0.1135438
-3.914812	mistake	-0.1135438
-4.097505	mistaken	-0.1135438
-4.097505	mix	-0.1135438
-4.097505	mobile	-0.1135438
-3.914812	modern	-0.1135438
-4.097505	modest	-0.1135438
-4.097505	mohur	-0.1135438
-4.097505	molluse	-0.1135438
-3.914812	mom	-0.1135438
-3.829278	moment	-0.1769054
-4.097505	monastery	-0.1135438
-3.008516	money	-0.2276901
-4.097505	monk	-0.1135438
-4.097505	monkey	-0.1135438
-4.097505	monrning	-0.1135438
-4.097505	monsoon	-0.1135438
-3.829278	month	-0.1671158
-3.914812	monthly	-0.1671158
-3.829278	months	-0.1671158
-4.097505	montly	-0.1135438
-3.914812	moon	-0.1530906
-4.097505	moorhen	-0.1135438
-4.097505	mope	-0.1135438
-4.097505	moral	-0.1135438
-3.2738	more	-0.1465096
-3.139991	morning	-0.2968954
-4.097505	mortal	-0.1135438
-4.097505	mortar	-0.1135438
-4.097505	mosquito	-0.1135438
-3.558741	most	-0.1395043
-4.097505	moth	-0.1135438
-3.393309	mother	-0.1905704
-4.097505	mountain	-0.1135438
-4.097505	mouse	-0.1135438
-3.829278	mouth	-0.1966027
-3.829278	move	-0.1135438
-3.829278	movie	-0.2050871
-3.558741	movies	-0.3233071
-4.097505	moving	-0.1135438
-3.393309	much	-0.1554276
-3.914812	muddy	-0.1966027
-4.097505	mudskipper	-0.1135438
-4.097505	mug	-0.1135438
-4.097505	mullet	-0.1135438
-4.097505	mung	-0.1135438
-4.097505	munia	-0.1135438
-4.097505	murder	-0.1135438
-3.673276	music	-0.1966027
-4.097505	musicians.It	-0.1135438
-3.329457	must	-0.1607078
-4.097505	mutton	-0.1135438
-2.509527	my	-0.1540163
-3.914812	n	-0.1135438
-4.097505	nail	-0.1135438
-3.393309	name	-0.1895851
-4.097505	named	-0.1135438
-4.097505	nanroty	-0.1135438
-4.097505	napkin	-0.1135438
-4.097505	narrow	-0.1135438
-4.097505	narrowed	-0.1135438
-4.097505	nasty	-0.1135438
-4.097505	nation	-0.1135438
-3.829278	national	-0.1135438
-4.097505	nationality	-0.1135438
-3.914812	natural	-0.1135438
-3.069297	near	-0.4043943
-3.558741	nearby	-0.2050871
-4.097505	nearest	-0.1135438
-4.097505	nearing	-0.1135438
-4.097505	nearly	-0.1135438
-3.914812	neck	-0.1671158
-3.103207	need	-0.2148805
-4.097505	needed	-0.1135438
-4.097505	needle	-0.1135438
-4.097505	needn	-0.1135438
-3.829278	needs	-0.1135438
-3.914812	nest	-0.1671158
-3.224472	never	-0.1237425
-3.393309	new	-0.1135438
-3.673276	news	-0.1289331
-3.914812	newspaper	-0.1135438
-3.2738	next	-0.1558138
-3.468195	nice	-0.1904561
-3.468195	night	-0.2313416
-4.097505	nightclub	-0.1135438
-4.097505	nightjar	-0.1135438
-3.914812	nights	-0.1135438
-4.097505	nightshade	-0.1135438
-3.393309	nine	-0.1904561
-4.097505	nineteen	-0.1135438
-3.914812	ninety	-0.1135438
-3.008516	no	-0.1322688
-3.829278	nobody	-0.1135438
-4.097505	noise	-0.1135438
-4.097505	non	-0.1135438
-3.914812	none	-0.1135438
-3.914812	nonsense	-0.1966027
-3.914812	noodle	-0.1966027
-3.914812	noon	-0.1966027
-3.914812	normal	-0.1135438
-3.829278	north	-0.1530906
-4.097505	nose	-0.1135438
-2.633526	not	-0.1797072
-4.097505	note	-0.1135438
-4.097505	notes	-0.1135438
-3.2738	nothing	-0.265371
-3.914812	notice	-0.1135438
-4.097505	noticed	-0.1135438
-4.097505	notification	-0.1135438
-2.907731	now	-0.2788071
-4.097505	now.He	-0.1135438
-4.097505	nowhere	-0.1135438
-4.097505	numb	-0.1135438
-3.069297	number	-0.2704198
-4.097505	numbers	-0.1135438
-3.914812	nurse	-0.1966027
-4.097505	nut	-0.1135438
-3.329457	o	-0.704936
-4.097505	obetting	-0.1135438
-4.097505	obey	-0.1135438
-4.097505	obvious	-0.1135438
-4.097505	obviously	-0.1135438
-4.097505	occupation	-0.1135438
-4.097505	octopus	-0.1135438
-1.985926	of	-0.2649925
-3.069297	off	-0.2522048
-4.097505	offer	-0.1135438
-3.914812	offered	-0.1135438
-3.468195	office	-0.1328672
-3.829278	officer	-0.2313416
-4.097505	officers	-0.1135438
-3.673276	often	-0.1135438
-3.829278	oh	-0.1135438
-3.673276	oil	-0.1530906
-3.329457	ok	-0.3287588
-3.829278	okay	-0.1530906
-3.329457	old	-0.1135438
-3.829278	older	-0.1135438
-4.097505	oldest	-0.1135438
-3.914812	oleander	-0.1966027
-2.267699	on	-0.3442003
-3.829278	once	-0.1135438
-2.773415	one	-0.1908122
-4.097505	onion	-0.1135438
-3.914812	online	-0.1395043
-3.224472	only	-0.1135438
-4.097505	onto	-0.1135438
-4.097505	ooze	-0.1135438
-3.393309	open	-0.1680937
-3.914812	opening	-0.1135438
-3.914812	operation	-0.1135438
-4.097505	operative	-0.1135438
-3.914812	opinion	-0.1135438
-4.097505	opisthenar	-0.1135438
-4.097505	opponent	-0.1135438
-4.097505	opponents	-0.1135438
-3.914812	opposite	-0.1135438
-4.097505	option	-0.1135438
-2.68421	or	-0.1491937
-3.829278	orange	-0.1904561
-3.829278	oranges	-0.1135438
-4.097505	orchid	-0.1135438
-3.468195	order	-0.1837196
-4.097505	ordered	-0.1135438
-4.097505	orders	-0.1135438
-3.914812	ordinary	-0.1135438
-4.097505	organizations	-0.1135438
-4.097505	organized	-0.1135438
-4.097505	organs	-0.1135438
-4.097505	oriented	-0.1135438
-4.097505	osprey	-0.1135438
-3.558741	other	-0.1135438
-3.914812	others	-0.1135438
-4.097505	ou	-0.1135438
-3.914812	ought	-0.1966027
-3.329457	our	-0.1237425
-4.097505	ourselves	-0.1135438
-2.68421	out	-0.4168527
-4.097505	outerwear	-0.1135438
-4.097505	output	-0.1135438
-3.673276	outside	-0.2313416
-3.18018	over	-0.2601869
-4.097505	overcoat	-0.1135438
-4.097505	overcome	-0.1135438
-4.097505	overflow	-0.1135438
-4.097505	overseas	-0.1135438
-4.097505	owe	-0.1135438
-4.097505	owing	-0.1135438
-3.914812	owl	-0.1671158
-3.829278	own	-0.1684609
-4.097505	ox	-0.1135438
-4.097505	oyster	-0.1135438
-4.097505	ozone	-0.1135438
-3.914812	p	-0.1135438
-4.097505	p.m	-0.1135438
-4.097505	pace	-0.1135438
-4.097505	package	-0.1135438
-3.914812	paddy	-0.1135438
-4.097505	pagoda	-0.1135438
-3.829278	paid	-0.1135438
-3.829278	pain	-0.1671158
-4.097505	pains	-0.1135438
-4.097505	paint	-0.1135438
-4.097505	painted	-0.1135438
-4.097505	paintings	-0.1135438
-4.097505	pairs	-0.1135438
-4.097505	palce	-0.1135438
-4.097505	palmyra	-0.1135438
-3.829278	pan	-0.1530906
-4.097505	pant	-0.1135438
-4.097505	pants	-0.1135438
-3.673276	paper	-0.1135438
-4.097505	parachute	-0.1135438
-4.097505	parade	-0.1135438
-4.097505	paraised	-0.1135438
-4.097505	parcel	-0.1135438
-4.097505	pardoned	-0.1135438
-3.673276	parents	-0.1395043
-3.468195	park	-0.1135438
-3.914812	parking	-0.1135438
-4.097505	part	-0.1135438
-4.097505	participate	-0.1135438
-4.097505	participation	-0.1135438
-3.914812	particular	-0.1135438
-4.097505	parties	-0.1135438
-4.097505	partners	-0.1135438
-4.097505	partnership	-0.1135438
-3.829278	party	-0.1530906
-3.673276	pass	-0.1448879
-3.914812	passed	-0.1135438
-3.914812	passengers	-0.1135438
-3.829278	passport	-0.1135438
-3.673276	past	-0.1135438
-3.914812	patient	-0.1135438
-3.914812	patients	-0.1135438
-4.097505	paun	-0.1135438
-3.329457	pay	-0.191427
-4.097505	pays	-0.1135438
-3.914812	pea	-0.1966027
-4.097505	peace	-0.1135438
-4.097505	peak	-0.1135438
-4.097505	pedestrain	-0.1135438
-4.097505	peel	-0.1135438
-3.673276	pen	-0.1884264
-3.914812	pencil	-0.1135438
-3.914812	pencils	-0.1135438
-4.097505	penniless	-0.1135438
-4.097505	pens	-0.1135438
-3.558741	people	-0.1289331
-3.558741	per	-0.1884264
-3.829278	perch	-0.2789672
-3.914812	perfect	-0.1135438
-3.829278	performance	-0.2789672
-3.914812	permission	-0.1135438
-3.914812	person	-0.1135438
-4.097505	personal	-0.1135438
-4.097505	persuade	-0.1135438
-4.097505	persuasion	-0.1135438
-4.097505	pet	-0.1135438
-3.914812	pharmacy	-0.1135438
-4.097505	pheasant	-0.1135438
-3.558741	phone	-0.1485144
-4.097505	phoning	-0.1135438
-4.097505	photograph	-0.1135438
-3.914812	photographer	-0.1966027
-4.097505	physical	-0.1135438
-4.097505	piano	-0.1135438
-3.914812	pick	-0.1530906
-4.097505	picked	-0.1135438
-3.914812	picture	-0.1135438
-3.914812	pictures	-0.1135438
-4.097505	pie	-0.1135438
-4.097505	piece	-0.1135438
-4.097505	pierce	-0.1135438
-4.097505	pig	-0.1135438
-4.097505	pigeon	-0.1135438
-4.097505	pigs	-0.1135438
-3.914812	pilot	-0.1135438
-4.097505	pilots	-0.1135438
-4.097505	pine	-0.1135438
-4.097505	pipe	-0.1135438
-4.097505	pistol	-0.1135438
-4.097505	pity	-0.1135438
-4.097505	pizza	-0.1135438
-3.558741	place	-0.1786714
-3.468195	places	-0.1356993
-3.468195	plan	-0.1263301
-3.829278	plane	-0.1328672
-3.914812	planning	-0.1135438
-3.829278	plans	-0.1530906
-4.097505	plant	-0.1135438
-4.097505	plantain	-0.1135438
-3.914812	plate	-0.1966027
-4.097505	plateau	-0.1135438
-3.914812	plates	-0.1135438
-4.097505	platoon	-0.1135438
-3.673276	play	-0.1135438
-4.097505	played	-0.1135438
-4.097505	player	-0.1135438
-3.914812	playing	-0.1135438
-4.097505	plays	-0.1135438
-3.914812	pleasant	-0.1135438
-2.885807	please	-0.2684336
-4.097505	pleased	-0.1135438
-4.097505	pleasent	-0.1135438
-4.097505	pleasure	-0.1135438
-4.097505	plentiful	-0.1135438
-3.914812	plenty	-0.1135438
-4.097505	plucked	-0.1135438
-4.097505	plum	-0.1135438
-4.097505	plump	-0.1135438
-4.097505	pluto	-0.1135438
-3.914812	pocket	-0.1530906
-4.097505	poetry	-0.1135438
-4.097505	point	-0.1135438
-4.097505	pointing	-0.1135438
-4.097505	poisoned	-0.1135438
-3.829278	police	-0.1306772
-3.914812	policeman	-0.1135438
-4.097505	policewoman	-0.1135438
-4.097505	policies	-0.1135438
-3.914812	policy	-0.1966027
-4.097505	polish	-0.1135438
-4.097505	polite	-0.1135438
-3.914812	political	-0.1135438
-4.097505	pomelo	-0.1135438
-4.097505	pomfret	-0.1135438
-4.097505	pond	-0.1135438
-4.097505	pool	-0.1135438
-3.914812	poor	-0.1966027
-4.097505	pop	-0.1135438
-3.914812	popular	-0.1135438
-4.097505	porpose	-0.1135438
-4.097505	position	-0.1135438
-4.097505	possibility	-0.1135438
-3.829278	possible	-0.1671158
-3.829278	post	-0.1328672
-3.914812	postal	-0.1135438
-4.097505	postcard	-0.1135438
-4.097505	poste	-0.1135438
-4.097505	postman	-0.1135438
-4.097505	postpone	-0.1135438
-4.097505	pot	-0.1135438
-4.097505	potato	-0.1135438
-4.097505	potential	-0.1135438
-4.097505	pound	-0.1135438
-4.097505	pounds	-0.1135438
-3.914812	poverty	-0.1135438
-4.097505	powder	-0.1135438
-4.097505	power	-0.1135438
-3.914812	powerful	-0.1966027
-3.914812	practice	-0.1135438
-3.914812	praise	-0.1135438
-3.914812	praised	-0.1966027
-4.097505	pratise	-0.1135438
-4.097505	prawn	-0.1135438
-4.097505	praying	-0.1135438
-4.097505	precious	-0.1135438
-4.097505	predict	-0.1135438
-3.829278	prefer	-0.1356992
-4.097505	preferable	-0.1135438
-3.914812	preference	-0.1671158
-4.097505	prefers	-0.1135438
-4.097505	prepare	-0.1135438
-3.914812	presence	-0.1135438
-3.829278	present	-0.1671158
-4.097505	president	-0.1135438
-4.097505	press	-0.1135438
-4.097505	pressure	-0.1135438
-3.914812	pretend	-0.1966027
-4.097505	pretends	-0.1135438
-3.829278	pretty	-0.2789672
-4.097505	prevail	-0.1135438
-4.097505	prevailing	-0.1135438
-4.097505	prevented	-0.1135438
-4.097505	preventive	-0.1135438
-4.097505	preview	-0.1135438
-3.558741	price	-0.1904561
-4.097505	princess	-0.1135438
-4.097505	principles	-0.1135438
-3.914812	print	-0.1135438
-4.097505	printed	-0.1135438
-4.097505	prisonder	-0.1135438
-3.914812	prisoner	-0.1966027
-4.097505	prisoners	-0.1135438
-3.914812	private	-0.1135438
-4.097505	prize	-0.1135438
-3.558741	problem	-0.2553732
-3.914812	problems	-0.1135438
-4.097505	procedures	-0.1135438
-4.097505	process	-0.1135438
-3.914812	product	-0.1135438
-3.914812	productive	-0.1135438
-4.097505	profession	-0.1135438
-4.097505	profitable	-0.1135438
-4.097505	programme	-0.1135438
-4.097505	programmer	-0.1135438
-4.097505	programmes	-0.1135438
-4.097505	progress	-0.1135438
-4.097505	prohibited	-0.1135438
-3.558741	promise	-0.1530906
-3.829278	promised	-0.1135438
-3.829278	promises	-0.1135438
-4.097505	prone	-0.1135438
-4.097505	pronounce	-0.1135438
-4.097505	pronouncing	-0.1135438
-4.097505	proportions	-0.1135438
-4.097505	proposal	-0.1135438
-4.097505	proposals	-0.1135438
-4.097505	proposes	-0.1135438
-4.097505	protective	-0.1135438
-4.097505	proud	-0.1135438
-3.914812	proved	-0.1135438
-4.097505	provide	-0.1135438
-4.097505	proving	-0.1135438
-4.097505	provisional	-0.1135438
-4.097505	public	-0.1135438
-3.914812	pull	-0.1135438
-4.097505	pump	-0.1135438
-4.097505	pumpkin	-0.1135438
-3.914812	punish	-0.1135438
-4.097505	punished	-0.1135438
-3.914812	punishment	-0.1135438
-3.829278	pupil	-0.1135438
-4.097505	pupils	-0.1135438
-4.097505	purified	-0.1135438
-4.097505	purpose	-0.1135438
-3.914812	purse	-0.1135438
-3.914812	push	-0.1135438
-3.393309	put	-0.1493731
-3.829278	putting	-0.1671158
-3.914812	q	-0.1135438
-4.097505	quail	-0.1135438
-4.097505	qualifications	-0.1135438
-4.097505	quantities	-0.1135438
-3.829278	quarrel	-0.1135438
-3.914812	quarter	-0.1135438
-3.914812	queen	-0.1135438
-4.097505	question	-0.1135438
-4.097505	questions	-0.1135438
-3.829278	quickly	-0.1135438
-4.097505	quiet	-0.1135438
-3.914812	quite	-0.1135438
-3.914812	rabbit	-0.1135438
-4.097505	race	-0.1135438
-4.097505	raddish	-0.1135438
-4.097505	radical	-0.1135438
-4.097505	radio	-0.1135438
-4.097505	raided	-0.1135438
-4.097505	railway	-0.1135438
-3.558741	rain	-0.1485144
-3.673276	raining	-0.1135438
-4.097505	raise	-0.1135438
-4.097505	raised	-0.1135438
-4.097505	rambutan	-0.1135438
-3.914812	ran	-0.1135438
-4.097505	rang	-0.1135438
-4.097505	rare	-0.1135438
-3.468195	rate	-0.1904561
-3.468195	rather	-0.1356993
-4.097505	ration	-0.1135438
-3.914812	raven	-0.1966027
-4.097505	raw	-0.1135438
-4.097505	rays	-0.1135438
-3.673276	reach	-0.1135438
-3.914812	reached	-0.1135438
-3.829278	read	-0.1135438
-3.673276	reading	-0.1448879
-3.393309	ready	-0.202646
-4.097505	realignment	-0.1135438
-3.2738	really	-0.1356993
-4.097505	reasonable	-0.1135438
-4.097505	rebel	-0.1135438
-4.097505	rebuild	-0.1135438
-4.097505	receipt	-0.1135438
-4.097505	received	-0.1135438
-4.097505	receives	-0.1135438
-3.914812	recent	-0.1135438
-3.914812	recently	-0.1135438
-3.914812	reception	-0.1966027
-3.914812	recession	-0.1135438
-4.097505	recognition	-0.1135438
-4.097505	recommend	-0.1135438
-4.097505	recommendation	-0.1135438
-4.097505	recover	-0.1135438
-3.393309	red	-0.265371
-4.097505	reduced	-0.1135438
-4.097505	reference	-0.1135438
-4.097505	refiment	-0.1135438
-4.097505	refrigerator	-0.1135438
-4.097505	refusing	-0.1135438
-4.097505	regards	-0.1135438
-3.914812	regiment	-0.1966027
-4.097505	region	-0.1135438
-4.097505	regional	-0.1135438
-3.914812	register	-0.1966027
-4.097505	registered	-0.1135438
-4.097505	regular	-0.1135438
-4.097505	regularly	-0.1135438
-4.097505	regulations	-0.1135438
-4.097505	rehearse	-0.1135438
-4.097505	relationships	-0.1135438
-4.097505	reliable	-0.1135438
-4.097505	relief	-0.1135438
-4.097505	relieved	-0.1135438
-4.097505	religion	-0.1135438
-4.097505	religious	-0.1135438
-4.097505	reluctant	-0.1135438
-4.097505	remarkable	-0.1135438
-3.914812	remember	-0.1135438
-3.829278	remind	-0.1135438
-4.097505	remove	-0.1135438
-4.097505	renew	-0.1135438
-3.673276	rent	-0.1530906
-4.097505	repair	-0.1135438
-4.097505	repairing	-0.1135438
-4.097505	repeat	-0.1135438
-3.914812	repeating	-0.1135438
-4.097505	repeats	-0.1135438
-4.097505	repent	-0.1135438
-3.673276	replied	-0.2313416
-3.829278	replies	-0.2789673
-4.097505	reply	-0.1135438
-3.914812	representative	-0.1966027
-4.097505	research	-0.1135438
-4.097505	resentment	-0.1135438
-3.558741	reservation	-0.3512152
-4.097505	reservations	-0.1135438
-4.097505	reserved	-0.1135438
-4.097505	reservoir	-0.1135438
-4.097505	resignation	-0.1135438
-4.097505	respect	-0.1135438
-4.097505	respected	-0.1135438
-4.097505	respond	-0.1135438
-4.097505	respondent	-0.1135438
-3.914812	responsible	-0.1966027
-3.914812	rest	-0.1135438
-4.097505	restante	-0.1135438
-3.2738	restaurant	-0.2143695
-4.097505	restroom	-0.1135438
-4.097505	results	-0.1135438
-4.097505	retires	-0.1135438
-4.097505	retore	-0.1135438
-4.097505	retrieve	-0.1135438
-3.468195	return	-0.168461
-4.097505	returned	-0.1135438
-3.914812	revenge	-0.1135438
-4.097505	reversed	-0.1135438
-4.097505	revolution	-0.1135438
-4.097505	revolve	-0.1135438
-4.097505	reward	-0.1135438
-3.468195	rice	-0.1356993
-4.097505	ricenoodles	-0.1135438
-3.914812	rich	-0.1966027
-4.097505	ridden	-0.1135438
-3.468195	ride	-0.159046
-4.097505	riding	-0.1135438
-4.097505	rifle	-0.1135438
-3.008516	right	-0.2697059
-4.097505	rigid	-0.1135438
-3.829278	ring	-0.1135438
-3.914812	ringing	-0.1135438
-3.914812	rises	-0.1135438
-3.558741	rising	-0.2050872
-4.097505	rivals	-0.1135438
-3.673276	river	-0.1289331
-3.673276	road	-0.1135438
-4.097505	roads	-0.1135438
-4.097505	roast	-0.1135438
-4.097505	robbers	-0.1135438
-3.829278	robbery	-0.2789672
-4.097505	robin	-0.1135438
-4.097505	rocket	-0.1135438
-4.097505	rocks	-0.1135438
-4.097505	roll	-0.1135438
-3.393309	room	-0.2531266
-4.097505	rooms	-0.1135438
-4.097505	root	-0.1135438
-4.097505	rose	-0.1135438
-4.097505	roselle	-0.1135438
-4.097505	roses	-0.1135438
-4.097505	rough	-0.1135438
-3.673276	round	-0.1786714
-3.914812	row	-0.1135438
-4.097505	rub	-0.1135438
-4.097505	rude	-0.1135438
-3.829278	ruler	-0.1135438
-4.097505	rumour	-0.1135438
-3.914812	rumours	-0.1135438
-3.673276	run	-0.1135438
-3.829278	running	-0.1671158
-4.097505	runs	-0.1135438
-4.097505	rupes	-0.1135438
-3.914812	rural	-0.1135438
-4.097505	rusk	-0.1135438
-3.673276	sad	-0.2313416
-3.914812	safe	-0.1135438
-4.097505	safflower	-0.1135438
-2.955206	said	-0.29325
-3.914812	sail	-0.1135438
-4.097505	sailors	-0.1135438
-4.097505	sake	-0.1135438
-3.829278	salad	-0.1671158
-4.097505	salary	-0.1135438
-4.097505	sale	-0.1135438
-3.914812	sales	-0.1135438
-4.097505	saleswoman	-0.1135438
-3.914812	salt	-0.1135438
-4.097505	salty	-0.1135438
-4.097505	salute	-0.1135438
-4.097505	same	-0.1135438
-4.097505	sand	-0.1135438
-4.097505	sandal	-0.1135438
-4.097505	sandwiches	-0.1135438
-4.097505	sandwitch	-0.1135438
-4.097505	sanetity	-0.1135438
-4.097505	sang	-0.1135438
-4.097505	satisfactory	-0.1135438
-3.914812	satisfied	-0.1135438
-4.097505	saucer	-0.1135438
-4.097505	sauna	-0.1135438
-3.468195	save	-0.1328672
-4.097505	saved	-0.1135438
-3.914812	savings	-0.1135438
-3.558741	saw	-0.202646
-3.18018	say	-0.2370769
-3.914812	saying	-0.1135438
-3.103207	says	-0.4310835
-3.914812	scenery	-0.1135438
-3.829278	schedule	-0.1135438
-4.097505	scheme	-0.1135438
-4.097505	schook	-0.1135438
-3.393309	school	-0.1739453
-4.097505	scientific	-0.1135438
-4.097505	scientist	-0.1135438
-4.097505	scientists	-0.1135438
-4.097505	scorching	-0.1135438
